<?xml version="1.0"?>
<PMML version="4.1" xmlns="http://www.dmg.org/PMML-4_1" xmlns:xsi="http://www.w3.org/2001/XMLSchema-instance" xsi:schemaLocation="http://www.dmg.org/PMML-4_1 http://www.dmg.org/v4-1/pmml-4-1.xsd">
 <Header copyright="Copyright (c) 2016 Syncfusion" description="Random Forest Tree Model">
  <Extension name="user" value="Syncfusion" extender="Rattle/PMML"/>
  <Application name="Rattle/PMML" version="1.4"/>
  <Timestamp>2014-07-17 17:05:15</Timestamp>
 </Header>
 <DataDictionary numberOfFields="13">
  <DataField name="average_ozone_reading" optype="continuous" dataType="double"/>
  <DataField name="Month" optype="categorical" dataType="string">
   <Value value="1"/>
   <Value value="2"/>
   <Value value="3"/>
   <Value value="4"/>
   <Value value="5"/>
   <Value value="6"/>
   <Value value="7"/>
   <Value value="8"/>
   <Value value="9"/>
   <Value value="10"/>
   <Value value="11"/>
   <Value value="12"/>
  </DataField>
  <DataField name="Day_of_month" optype="categorical" dataType="string">
   <Value value="1"/>
   <Value value="2"/>
   <Value value="3"/>
   <Value value="4"/>
   <Value value="5"/>
   <Value value="6"/>
   <Value value="7"/>
   <Value value="8"/>
   <Value value="9"/>
   <Value value="10"/>
   <Value value="11"/>
   <Value value="12"/>
   <Value value="13"/>
   <Value value="14"/>
   <Value value="15"/>
   <Value value="16"/>
   <Value value="17"/>
   <Value value="18"/>
   <Value value="19"/>
   <Value value="20"/>
   <Value value="21"/>
   <Value value="22"/>
   <Value value="23"/>
   <Value value="24"/>
   <Value value="25"/>
   <Value value="26"/>
   <Value value="27"/>
   <Value value="28"/>
   <Value value="29"/>
   <Value value="30"/>
   <Value value="31"/>
  </DataField>
  <DataField name="Day_of_week" optype="categorical" dataType="string">
   <Value value="1"/>
   <Value value="2"/>
   <Value value="3"/>
   <Value value="4"/>
   <Value value="5"/>
   <Value value="6"/>
   <Value value="7"/>
  </DataField>
  <DataField name="pressure_height" optype="continuous" dataType="double"/>
  <DataField name="Wind_speed" optype="continuous" dataType="double"/>
  <DataField name="Humidity" optype="continuous" dataType="double"/>
  <DataField name="Temperature_at_Sandburg" optype="continuous" dataType="double"/>
  <DataField name="Temperature_at_El_Monte" optype="continuous" dataType="double"/>
  <DataField name="Inversion_base_height" optype="continuous" dataType="double"/>
  <DataField name="Pressure_gradient" optype="continuous" dataType="double"/>
  <DataField name="Inversion_base_temperature" optype="continuous" dataType="double"/>
  <DataField name="Visibility" optype="continuous" dataType="double"/>
 </DataDictionary>
 <MiningModel modelName="randomForest_Model" functionName="regression">
  <MiningSchema>
   <MiningField name="average_ozone_reading" usageType="predicted" invalidValueTreatment="asIs"/>
   <MiningField name="Month" usageType="active" invalidValueTreatment="asIs"/>
   <MiningField name="Day_of_month" usageType="active" invalidValueTreatment="asIs"/>
   <MiningField name="Day_of_week" usageType="active" invalidValueTreatment="asIs"/>
   <MiningField name="pressure_height" usageType="active" invalidValueTreatment="asIs"/>
   <MiningField name="Wind_speed" usageType="active" invalidValueTreatment="asIs"/>
   <MiningField name="Humidity" usageType="active" invalidValueTreatment="asIs"/>
   <MiningField name="Temperature_at_Sandburg" usageType="active" invalidValueTreatment="asIs"/>
   <MiningField name="Temperature_at_El_Monte" usageType="active" invalidValueTreatment="asIs"/>
   <MiningField name="Inversion_base_height" usageType="active" invalidValueTreatment="asIs"/>
   <MiningField name="Pressure_gradient" usageType="active" invalidValueTreatment="asIs"/>
   <MiningField name="Inversion_base_temperature" usageType="active" invalidValueTreatment="asIs"/>
   <MiningField name="Visibility" usageType="active" invalidValueTreatment="asIs"/>
  </MiningSchema>
  <Output>
   <OutputField name="Predicted_average_ozone_reading" feature="predictedValue"/>
  </Output>
  <Segmentation multipleModelMethod="average">
   <Segment id="1">
    <True/>
    <TreeModel modelName="randomForest_Model" functionName="regression" algorithmName="randomForest" splitCharacteristic="binarySplit">
     <MiningSchema>
      <MiningField name="average_ozone_reading" usageType="predicted" invalidValueTreatment="asIs"/>
      <MiningField name="Month" usageType="active" invalidValueTreatment="asIs"/>
      <MiningField name="Day_of_month" usageType="active" invalidValueTreatment="asIs"/>
      <MiningField name="Day_of_week" usageType="active" invalidValueTreatment="asIs"/>
      <MiningField name="pressure_height" usageType="active" invalidValueTreatment="asIs"/>
      <MiningField name="Wind_speed" usageType="active" invalidValueTreatment="asIs"/>
      <MiningField name="Humidity" usageType="active" invalidValueTreatment="asIs"/>
      <MiningField name="Temperature_at_Sandburg" usageType="active" invalidValueTreatment="asIs"/>
      <MiningField name="Temperature_at_El_Monte" usageType="active" invalidValueTreatment="asIs"/>
      <MiningField name="Inversion_base_height" usageType="active" invalidValueTreatment="asIs"/>
      <MiningField name="Pressure_gradient" usageType="active" invalidValueTreatment="asIs"/>
      <MiningField name="Inversion_base_temperature" usageType="active" invalidValueTreatment="asIs"/>
      <MiningField name="Visibility" usageType="active" invalidValueTreatment="asIs"/>
     </MiningSchema>
     <Node id="1">
      <True/>
      <Node id="2">
       <SimplePredicate field="Temperature_at_El_Monte" operator="lessOrEqual" value="57.65"/>
       <Node id="4">
        <SimplePredicate field="Inversion_base_temperature" operator="lessOrEqual" value="54.32"/>
        <Node id="8">
         <SimplePredicate field="Temperature_at_El_Monte" operator="lessOrEqual" value="42.26"/>
         <Node id="16">
          <SimpleSetPredicate field="Day_of_month" booleanOperator="isIn">
           <Array n="26" type="string">&quot;1&quot;   &quot;2&quot;   &quot;3&quot;   &quot;4&quot;   &quot;5&quot;   &quot;7&quot;   &quot;9&quot;   &quot;10&quot;   &quot;11&quot;   &quot;13&quot;   &quot;15&quot;   &quot;16&quot;   &quot;17&quot;   &quot;18&quot;   &quot;19&quot;   &quot;20&quot;   &quot;21&quot;   &quot;22&quot;   &quot;23&quot;   &quot;25&quot;   &quot;26&quot;   &quot;27&quot;   &quot;28&quot;   &quot;29&quot;   &quot;30&quot;   &quot;31&quot;</Array>
          </SimpleSetPredicate>
          <Node id="30">
           <SimplePredicate field="Inversion_base_temperature" operator="lessOrEqual" value="37.76"/>
           <Node id="46" score="4">
            <SimplePredicate field="Humidity" operator="lessOrEqual" value="45"/>
           </Node>
           <Node id="47">
            <SimplePredicate field="Humidity" operator="greaterThan" value="45"/>
            <Node id="64" score="3">
             <SimplePredicate field="pressure_height" operator="lessOrEqual" value="5535"/>
            </Node>
            <Node id="65" score="3.66666666666667">
             <SimplePredicate field="pressure_height" operator="greaterThan" value="5535"/>
            </Node>
           </Node>
          </Node>
          <Node id="31" score="2.2">
           <SimplePredicate field="Inversion_base_temperature" operator="greaterThan" value="37.76"/>
          </Node>
         </Node>
         <Node id="17">
          <SimpleSetPredicate field="Day_of_month" booleanOperator="isIn">
           <Array n="5" type="string">&quot;6&quot;   &quot;8&quot;   &quot;12&quot;   &quot;14&quot;   &quot;24&quot;</Array>
          </SimpleSetPredicate>
          <Node id="32" score="7.5">
           <SimplePredicate field="Humidity" operator="lessOrEqual" value="56.5"/>
          </Node>
          <Node id="33">
           <SimplePredicate field="Humidity" operator="greaterThan" value="56.5"/>
           <Node id="48" score="3">
            <SimplePredicate field="Temperature_at_El_Monte" operator="lessOrEqual" value="33.62"/>
           </Node>
           <Node id="49" score="5.4">
            <SimplePredicate field="Temperature_at_El_Monte" operator="greaterThan" value="33.62"/>
           </Node>
          </Node>
         </Node>
        </Node>
        <Node id="9">
         <SimplePredicate field="Temperature_at_El_Monte" operator="greaterThan" value="42.26"/>
         <Node id="18">
          <SimplePredicate field="Temperature_at_El_Monte" operator="lessOrEqual" value="53.24"/>
          <Node id="34">
           <SimpleSetPredicate field="Month" booleanOperator="isIn">
            <Array n="8" type="string">&quot;1&quot;   &quot;2&quot;   &quot;5&quot;   &quot;7&quot;   &quot;9&quot;   &quot;10&quot;   &quot;11&quot;   &quot;12&quot;</Array>
           </SimpleSetPredicate>
           <Node id="50">
            <SimplePredicate field="Humidity" operator="lessOrEqual" value="38"/>
            <Node id="66" score="4">
             <SimpleSetPredicate field="Day_of_week" booleanOperator="isIn">
              <Array n="6" type="string">&quot;1&quot;   &quot;2&quot;   &quot;3&quot;   &quot;4&quot;   &quot;6&quot;   &quot;7&quot;</Array>
             </SimpleSetPredicate>
            </Node>
            <Node id="67" score="6">
             <SimpleSetPredicate field="Day_of_week" booleanOperator="isIn">
              <Array n="1" type="string">&quot;5&quot;</Array>
             </SimpleSetPredicate>
            </Node>
           </Node>
           <Node id="51">
            <SimplePredicate field="Humidity" operator="greaterThan" value="38"/>
            <Node id="68" score="8.5">
             <SimplePredicate field="pressure_height" operator="lessOrEqual" value="5685"/>
            </Node>
            <Node id="69">
             <SimplePredicate field="pressure_height" operator="greaterThan" value="5685"/>
             <Node id="78">
              <SimplePredicate field="Temperature_at_El_Monte" operator="lessOrEqual" value="51.71"/>
              <Node id="86" score="6">
               <SimplePredicate field="Inversion_base_height" operator="lessOrEqual" value="2721"/>
              </Node>
              <Node id="87" score="5">
               <SimplePredicate field="Inversion_base_height" operator="greaterThan" value="2721"/>
              </Node>
             </Node>
             <Node id="79" score="7">
              <SimplePredicate field="Temperature_at_El_Monte" operator="greaterThan" value="51.71"/>
             </Node>
            </Node>
           </Node>
          </Node>
          <Node id="35">
           <SimpleSetPredicate field="Month" booleanOperator="isIn">
            <Array n="4" type="string">&quot;3&quot;   &quot;4&quot;   &quot;6&quot;   &quot;8&quot;</Array>
           </SimpleSetPredicate>
           <Node id="52">
            <SimpleSetPredicate field="Month" booleanOperator="isIn">
             <Array n="10" type="string">&quot;1&quot;   &quot;2&quot;   &quot;3&quot;   &quot;4&quot;   &quot;5&quot;   &quot;7&quot;   &quot;9&quot;   &quot;10&quot;   &quot;11&quot;   &quot;12&quot;</Array>
            </SimpleSetPredicate>
            <Node id="70" score="8.75">
             <SimplePredicate field="Temperature_at_El_Monte" operator="lessOrEqual" value="52.16"/>
            </Node>
            <Node id="71" score="12.5">
             <SimplePredicate field="Temperature_at_El_Monte" operator="greaterThan" value="52.16"/>
            </Node>
           </Node>
           <Node id="53" score="12">
            <SimpleSetPredicate field="Month" booleanOperator="isIn">
             <Array n="2" type="string">&quot;6&quot;   &quot;8&quot;</Array>
            </SimpleSetPredicate>
           </Node>
          </Node>
         </Node>
         <Node id="19" score="3.75">
          <SimplePredicate field="Temperature_at_El_Monte" operator="greaterThan" value="53.24"/>
         </Node>
        </Node>
       </Node>
       <Node id="5">
        <SimplePredicate field="Inversion_base_temperature" operator="greaterThan" value="54.32"/>
        <Node id="10" score="5">
         <SimplePredicate field="Humidity" operator="lessOrEqual" value="26.5"/>
        </Node>
        <Node id="11">
         <SimplePredicate field="Humidity" operator="greaterThan" value="26.5"/>
         <Node id="20" score="8">
          <SimplePredicate field="Inversion_base_temperature" operator="lessOrEqual" value="55.58"/>
         </Node>
         <Node id="21">
          <SimplePredicate field="Inversion_base_temperature" operator="greaterThan" value="55.58"/>
          <Node id="36">
           <SimplePredicate field="Wind_speed" operator="lessOrEqual" value="6.5"/>
           <Node id="54" score="14">
            <SimplePredicate field="Temperature_at_Sandburg" operator="lessOrEqual" value="43.5"/>
           </Node>
           <Node id="55">
            <SimplePredicate field="Temperature_at_Sandburg" operator="greaterThan" value="43.5"/>
            <Node id="72">
             <SimpleSetPredicate field="Day_of_week" booleanOperator="isIn">
              <Array n="6" type="string">&quot;2&quot;   &quot;3&quot;   &quot;4&quot;   &quot;5&quot;   &quot;6&quot;   &quot;7&quot;</Array>
             </SimpleSetPredicate>
             <Node id="80">
              <SimplePredicate field="Visibility" operator="lessOrEqual" value="275"/>
              <Node id="88">
               <SimplePredicate field="Inversion_base_temperature" operator="lessOrEqual" value="68.45"/>
               <Node id="92">
                <SimpleSetPredicate field="Day_of_month" booleanOperator="isIn">
                 <Array n="28" type="string">&quot;1&quot;   &quot;2&quot;   &quot;3&quot;   &quot;5&quot;   &quot;6&quot;   &quot;7&quot;   &quot;8&quot;   &quot;9&quot;   &quot;10&quot;   &quot;11&quot;   &quot;12&quot;   &quot;13&quot;   &quot;14&quot;   &quot;15&quot;   &quot;16&quot;   &quot;18&quot;   &quot;19&quot;   &quot;20&quot;   &quot;21&quot;   &quot;22&quot;   &quot;23&quot;   &quot;24&quot;   &quot;25&quot;   &quot;26&quot;   &quot;27&quot;   &quot;28&quot;   &quot;29&quot;   &quot;31&quot;</Array>
                </SimpleSetPredicate>
                <Node id="94" score="10">
                 <SimplePredicate field="Pressure_gradient" operator="lessOrEqual" value="60"/>
                </Node>
                <Node id="95" score="9">
                 <SimplePredicate field="Pressure_gradient" operator="greaterThan" value="60"/>
                </Node>
               </Node>
               <Node id="93" score="11">
                <SimpleSetPredicate field="Day_of_month" booleanOperator="isIn">
                 <Array n="3" type="string">&quot;4&quot;   &quot;17&quot;   &quot;30&quot;</Array>
                </SimpleSetPredicate>
               </Node>
              </Node>
              <Node id="89" score="9">
               <SimplePredicate field="Inversion_base_temperature" operator="greaterThan" value="68.45"/>
              </Node>
             </Node>
             <Node id="81" score="12">
              <SimplePredicate field="Visibility" operator="greaterThan" value="275"/>
             </Node>
            </Node>
            <Node id="73" score="12.6666666666667">
             <SimpleSetPredicate field="Day_of_week" booleanOperator="isIn">
              <Array n="1" type="string">&quot;1&quot;</Array>
             </SimpleSetPredicate>
            </Node>
           </Node>
          </Node>
          <Node id="37" score="6">
           <SimplePredicate field="Wind_speed" operator="greaterThan" value="6.5"/>
          </Node>
         </Node>
        </Node>
       </Node>
      </Node>
      <Node id="3">
       <SimplePredicate field="Temperature_at_El_Monte" operator="greaterThan" value="57.65"/>
       <Node id="6">
        <SimplePredicate field="Inversion_base_height" operator="lessOrEqual" value="2084.5"/>
        <Node id="12">
         <SimplePredicate field="Pressure_gradient" operator="lessOrEqual" value="-10"/>
         <Node id="22" score="6.75">
          <SimpleSetPredicate field="Day_of_week" booleanOperator="isIn">
           <Array n="4" type="string">&quot;2&quot;   &quot;5&quot;   &quot;6&quot;   &quot;7&quot;</Array>
          </SimpleSetPredicate>
         </Node>
         <Node id="23">
          <SimpleSetPredicate field="Day_of_week" booleanOperator="isIn">
           <Array n="3" type="string">&quot;1&quot;   &quot;3&quot;   &quot;4&quot;</Array>
          </SimpleSetPredicate>
          <Node id="38" score="16">
           <SimpleSetPredicate field="Month" booleanOperator="isIn">
            <Array n="11" type="string">&quot;1&quot;   &quot;2&quot;   &quot;3&quot;   &quot;4&quot;   &quot;5&quot;   &quot;6&quot;   &quot;7&quot;   &quot;8&quot;   &quot;9&quot;   &quot;11&quot;   &quot;12&quot;</Array>
           </SimpleSetPredicate>
          </Node>
          <Node id="39" score="18">
           <SimpleSetPredicate field="Month" booleanOperator="isIn">
            <Array n="1" type="string">&quot;10&quot;</Array>
           </SimpleSetPredicate>
          </Node>
         </Node>
        </Node>
        <Node id="13">
         <SimplePredicate field="Pressure_gradient" operator="greaterThan" value="-10"/>
         <Node id="24">
          <SimplePredicate field="Inversion_base_temperature" operator="lessOrEqual" value="76.01"/>
          <Node id="40">
           <SimpleSetPredicate field="Month" booleanOperator="isIn">
            <Array n="7" type="string">&quot;1&quot;   &quot;4&quot;   &quot;6&quot;   &quot;8&quot;   &quot;10&quot;   &quot;11&quot;   &quot;12&quot;</Array>
           </SimpleSetPredicate>
           <Node id="56">
            <SimplePredicate field="Pressure_gradient" operator="lessOrEqual" value="58.5"/>
            <Node id="74">
             <SimplePredicate field="Inversion_base_temperature" operator="lessOrEqual" value="73.85"/>
             <Node id="82" score="22">
              <SimplePredicate field="Humidity" operator="lessOrEqual" value="59"/>
             </Node>
             <Node id="83">
              <SimplePredicate field="Humidity" operator="greaterThan" value="59"/>
              <Node id="90" score="17">
               <SimpleSetPredicate field="Day_of_month" booleanOperator="isIn">
                <Array n="29" type="string">&quot;1&quot;   &quot;2&quot;   &quot;3&quot;   &quot;4&quot;   &quot;5&quot;   &quot;6&quot;   &quot;7&quot;   &quot;8&quot;   &quot;9&quot;   &quot;10&quot;   &quot;11&quot;   &quot;13&quot;   &quot;14&quot;   &quot;15&quot;   &quot;16&quot;   &quot;17&quot;   &quot;18&quot;   &quot;19&quot;   &quot;20&quot;   &quot;21&quot;   &quot;22&quot;   &quot;23&quot;   &quot;24&quot;   &quot;25&quot;   &quot;26&quot;   &quot;27&quot;   &quot;28&quot;   &quot;30&quot;   &quot;31&quot;</Array>
               </SimpleSetPredicate>
              </Node>
              <Node id="91" score="19">
               <SimpleSetPredicate field="Day_of_month" booleanOperator="isIn">
                <Array n="2" type="string">&quot;12&quot;   &quot;29&quot;</Array>
               </SimpleSetPredicate>
              </Node>
             </Node>
            </Node>
            <Node id="75">
             <SimplePredicate field="Inversion_base_temperature" operator="greaterThan" value="73.85"/>
             <Node id="84" score="21">
              <SimplePredicate field="pressure_height" operator="lessOrEqual" value="5850"/>
             </Node>
             <Node id="85" score="23.6">
              <SimplePredicate field="pressure_height" operator="greaterThan" value="5850"/>
             </Node>
            </Node>
           </Node>
           <Node id="57" score="13.8">
            <SimplePredicate field="Pressure_gradient" operator="greaterThan" value="58.5"/>
           </Node>
          </Node>
          <Node id="41">
           <SimpleSetPredicate field="Month" booleanOperator="isIn">
            <Array n="5" type="string">&quot;2&quot;   &quot;3&quot;   &quot;5&quot;   &quot;7&quot;   &quot;9&quot;</Array>
           </SimpleSetPredicate>
           <Node id="58" score="23">
            <SimpleSetPredicate field="Day_of_month" booleanOperator="isIn">
             <Array n="29" type="string">&quot;1&quot;   &quot;2&quot;   &quot;3&quot;   &quot;4&quot;   &quot;5&quot;   &quot;6&quot;   &quot;7&quot;   &quot;8&quot;   &quot;9&quot;   &quot;10&quot;   &quot;12&quot;   &quot;14&quot;   &quot;15&quot;   &quot;16&quot;   &quot;17&quot;   &quot;18&quot;   &quot;19&quot;   &quot;20&quot;   &quot;21&quot;   &quot;22&quot;   &quot;23&quot;   &quot;24&quot;   &quot;25&quot;   &quot;26&quot;   &quot;27&quot;   &quot;28&quot;   &quot;29&quot;   &quot;30&quot;   &quot;31&quot;</Array>
            </SimpleSetPredicate>
           </Node>
           <Node id="59" score="28">
            <SimpleSetPredicate field="Day_of_month" booleanOperator="isIn">
             <Array n="2" type="string">&quot;11&quot;   &quot;13&quot;</Array>
            </SimpleSetPredicate>
           </Node>
          </Node>
         </Node>
         <Node id="25">
          <SimplePredicate field="Inversion_base_temperature" operator="greaterThan" value="76.01"/>
          <Node id="42">
           <SimplePredicate field="Visibility" operator="lessOrEqual" value="65"/>
           <Node id="60">
            <SimpleSetPredicate field="Day_of_month" booleanOperator="isIn">
             <Array n="28" type="string">&quot;1&quot;   &quot;2&quot;   &quot;3&quot;   &quot;4&quot;   &quot;5&quot;   &quot;7&quot;   &quot;8&quot;   &quot;9&quot;   &quot;10&quot;   &quot;11&quot;   &quot;13&quot;   &quot;15&quot;   &quot;16&quot;   &quot;17&quot;   &quot;18&quot;   &quot;19&quot;   &quot;20&quot;   &quot;21&quot;   &quot;22&quot;   &quot;23&quot;   &quot;24&quot;   &quot;25&quot;   &quot;26&quot;   &quot;27&quot;   &quot;28&quot;   &quot;29&quot;   &quot;30&quot;   &quot;31&quot;</Array>
            </SimpleSetPredicate>
            <Node id="76" score="24.3333333333333">
             <SimplePredicate field="Visibility" operator="lessOrEqual" value="35"/>
            </Node>
            <Node id="77" score="28.3333333333333">
             <SimplePredicate field="Visibility" operator="greaterThan" value="35"/>
            </Node>
           </Node>
           <Node id="61" score="32.8">
            <SimpleSetPredicate field="Day_of_month" booleanOperator="isIn">
             <Array n="3" type="string">&quot;6&quot;   &quot;12&quot;   &quot;14&quot;</Array>
            </SimpleSetPredicate>
           </Node>
          </Node>
          <Node id="43" score="23.4">
           <SimplePredicate field="Visibility" operator="greaterThan" value="65"/>
          </Node>
         </Node>
        </Node>
       </Node>
       <Node id="7">
        <SimplePredicate field="Inversion_base_height" operator="greaterThan" value="2084.5"/>
        <Node id="14">
         <SimpleSetPredicate field="Day_of_month" booleanOperator="isIn">
          <Array n="24" type="string">&quot;1&quot;   &quot;2&quot;   &quot;5&quot;   &quot;6&quot;   &quot;7&quot;   &quot;8&quot;   &quot;9&quot;   &quot;10&quot;   &quot;11&quot;   &quot;15&quot;   &quot;16&quot;   &quot;17&quot;   &quot;18&quot;   &quot;20&quot;   &quot;22&quot;   &quot;23&quot;   &quot;24&quot;   &quot;25&quot;   &quot;26&quot;   &quot;27&quot;   &quot;28&quot;   &quot;29&quot;   &quot;30&quot;   &quot;31&quot;</Array>
         </SimpleSetPredicate>
         <Node id="26" score="9.25">
          <SimplePredicate field="pressure_height" operator="lessOrEqual" value="5845"/>
         </Node>
         <Node id="27" score="12">
          <SimplePredicate field="pressure_height" operator="greaterThan" value="5845"/>
         </Node>
        </Node>
        <Node id="15">
         <SimpleSetPredicate field="Day_of_month" booleanOperator="isIn">
          <Array n="7" type="string">&quot;3&quot;   &quot;4&quot;   &quot;12&quot;   &quot;13&quot;   &quot;14&quot;   &quot;19&quot;   &quot;21&quot;</Array>
         </SimpleSetPredicate>
         <Node id="28">
          <SimpleSetPredicate field="Month" booleanOperator="isIn">
           <Array n="10" type="string">&quot;1&quot;   &quot;2&quot;   &quot;3&quot;   &quot;4&quot;   &quot;5&quot;   &quot;7&quot;   &quot;8&quot;   &quot;10&quot;   &quot;11&quot;   &quot;12&quot;</Array>
          </SimpleSetPredicate>
          <Node id="44">
           <SimplePredicate field="Temperature_at_El_Monte" operator="lessOrEqual" value="72.05"/>
           <Node id="62" score="12.5">
            <SimpleSetPredicate field="Day_of_month" booleanOperator="isIn">
             <Array n="29" type="string">&quot;1&quot;   &quot;2&quot;   &quot;3&quot;   &quot;4&quot;   &quot;5&quot;   &quot;6&quot;   &quot;7&quot;   &quot;8&quot;   &quot;9&quot;   &quot;10&quot;   &quot;11&quot;   &quot;13&quot;   &quot;14&quot;   &quot;15&quot;   &quot;16&quot;   &quot;17&quot;   &quot;18&quot;   &quot;20&quot;   &quot;21&quot;   &quot;22&quot;   &quot;23&quot;   &quot;24&quot;   &quot;25&quot;   &quot;26&quot;   &quot;27&quot;   &quot;28&quot;   &quot;29&quot;   &quot;30&quot;   &quot;31&quot;</Array>
            </SimpleSetPredicate>
           </Node>
           <Node id="63" score="14">
            <SimpleSetPredicate field="Day_of_month" booleanOperator="isIn">
             <Array n="2" type="string">&quot;12&quot;   &quot;19&quot;</Array>
            </SimpleSetPredicate>
           </Node>
          </Node>
          <Node id="45" score="17">
           <SimplePredicate field="Temperature_at_El_Monte" operator="greaterThan" value="72.05"/>
          </Node>
         </Node>
         <Node id="29" score="19.3333333333333">
          <SimpleSetPredicate field="Month" booleanOperator="isIn">
           <Array n="2" type="string">&quot;6&quot;   &quot;9&quot;</Array>
          </SimpleSetPredicate>
         </Node>
        </Node>
       </Node>
      </Node>
     </Node>
    </TreeModel>
   </Segment>
   <Segment id="2">
    <True/>
    <TreeModel modelName="randomForest_Model" functionName="regression" algorithmName="randomForest" splitCharacteristic="binarySplit">
     <MiningSchema>
      <MiningField name="average_ozone_reading" usageType="predicted" invalidValueTreatment="asIs"/>
      <MiningField name="Month" usageType="active" invalidValueTreatment="asIs"/>
      <MiningField name="Day_of_month" usageType="active" invalidValueTreatment="asIs"/>
      <MiningField name="Day_of_week" usageType="active" invalidValueTreatment="asIs"/>
      <MiningField name="pressure_height" usageType="active" invalidValueTreatment="asIs"/>
      <MiningField name="Wind_speed" usageType="active" invalidValueTreatment="asIs"/>
      <MiningField name="Humidity" usageType="active" invalidValueTreatment="asIs"/>
      <MiningField name="Temperature_at_Sandburg" usageType="active" invalidValueTreatment="asIs"/>
      <MiningField name="Temperature_at_El_Monte" usageType="active" invalidValueTreatment="asIs"/>
      <MiningField name="Inversion_base_height" usageType="active" invalidValueTreatment="asIs"/>
      <MiningField name="Pressure_gradient" usageType="active" invalidValueTreatment="asIs"/>
      <MiningField name="Inversion_base_temperature" usageType="active" invalidValueTreatment="asIs"/>
      <MiningField name="Visibility" usageType="active" invalidValueTreatment="asIs"/>
     </MiningSchema>
     <Node id="1">
      <True/>
      <Node id="2">
       <SimplePredicate field="Temperature_at_Sandburg" operator="lessOrEqual" value="69.5"/>
       <Node id="4">
        <SimpleSetPredicate field="Day_of_month" booleanOperator="isIn">
         <Array n="18" type="string">&quot;1&quot;   &quot;5&quot;   &quot;6&quot;   &quot;7&quot;   &quot;8&quot;   &quot;9&quot;   &quot;10&quot;   &quot;11&quot;   &quot;12&quot;   &quot;13&quot;   &quot;14&quot;   &quot;15&quot;   &quot;16&quot;   &quot;19&quot;   &quot;23&quot;   &quot;24&quot;   &quot;29&quot;   &quot;30&quot;</Array>
        </SimpleSetPredicate>
        <Node id="8">
         <SimpleSetPredicate field="Day_of_week" booleanOperator="isIn">
          <Array n="4" type="string">&quot;1&quot;   &quot;4&quot;   &quot;6&quot;   &quot;7&quot;</Array>
         </SimpleSetPredicate>
         <Node id="16">
          <SimpleSetPredicate field="Day_of_month" booleanOperator="isIn">
           <Array n="28" type="string">&quot;2&quot;   &quot;3&quot;   &quot;4&quot;   &quot;5&quot;   &quot;6&quot;   &quot;7&quot;   &quot;9&quot;   &quot;10&quot;   &quot;11&quot;   &quot;13&quot;   &quot;14&quot;   &quot;15&quot;   &quot;16&quot;   &quot;17&quot;   &quot;18&quot;   &quot;19&quot;   &quot;20&quot;   &quot;21&quot;   &quot;22&quot;   &quot;23&quot;   &quot;24&quot;   &quot;25&quot;   &quot;26&quot;   &quot;27&quot;   &quot;28&quot;   &quot;29&quot;   &quot;30&quot;   &quot;31&quot;</Array>
          </SimpleSetPredicate>
          <Node id="32">
           <SimplePredicate field="Inversion_base_temperature" operator="lessOrEqual" value="44.96"/>
           <Node id="58" score="2">
            <SimpleSetPredicate field="Day_of_month" booleanOperator="isIn">
             <Array n="28" type="string">&quot;1&quot;   &quot;2&quot;   &quot;3&quot;   &quot;4&quot;   &quot;6&quot;   &quot;7&quot;   &quot;8&quot;   &quot;10&quot;   &quot;11&quot;   &quot;12&quot;   &quot;13&quot;   &quot;14&quot;   &quot;16&quot;   &quot;17&quot;   &quot;18&quot;   &quot;19&quot;   &quot;20&quot;   &quot;21&quot;   &quot;22&quot;   &quot;23&quot;   &quot;24&quot;   &quot;25&quot;   &quot;26&quot;   &quot;27&quot;   &quot;28&quot;   &quot;29&quot;   &quot;30&quot;   &quot;31&quot;</Array>
            </SimpleSetPredicate>
           </Node>
           <Node id="59" score="3">
            <SimpleSetPredicate field="Day_of_month" booleanOperator="isIn">
             <Array n="3" type="string">&quot;5&quot;   &quot;9&quot;   &quot;15&quot;</Array>
            </SimpleSetPredicate>
           </Node>
          </Node>
          <Node id="33">
           <SimplePredicate field="Inversion_base_temperature" operator="greaterThan" value="44.96"/>
           <Node id="60" score="4.33333333333333">
            <SimplePredicate field="Visibility" operator="lessOrEqual" value="130"/>
           </Node>
           <Node id="61" score="4">
            <SimplePredicate field="Visibility" operator="greaterThan" value="130"/>
           </Node>
          </Node>
         </Node>
         <Node id="17">
          <SimpleSetPredicate field="Day_of_month" booleanOperator="isIn">
           <Array n="3" type="string">&quot;1&quot;   &quot;8&quot;   &quot;12&quot;</Array>
          </SimpleSetPredicate>
          <Node id="34" score="7.5">
           <SimplePredicate field="Visibility" operator="lessOrEqual" value="130"/>
          </Node>
          <Node id="35">
           <SimplePredicate field="Visibility" operator="greaterThan" value="130"/>
           <Node id="62" score="4.75">
            <SimpleSetPredicate field="Day_of_month" booleanOperator="isIn">
             <Array n="30" type="string">&quot;1&quot;   &quot;2&quot;   &quot;3&quot;   &quot;4&quot;   &quot;5&quot;   &quot;6&quot;   &quot;7&quot;   &quot;8&quot;   &quot;9&quot;   &quot;10&quot;   &quot;11&quot;   &quot;13&quot;   &quot;14&quot;   &quot;15&quot;   &quot;16&quot;   &quot;17&quot;   &quot;18&quot;   &quot;19&quot;   &quot;20&quot;   &quot;21&quot;   &quot;22&quot;   &quot;23&quot;   &quot;24&quot;   &quot;25&quot;   &quot;26&quot;   &quot;27&quot;   &quot;28&quot;   &quot;29&quot;   &quot;30&quot;   &quot;31&quot;</Array>
            </SimpleSetPredicate>
           </Node>
           <Node id="63" score="6.33333333333333">
            <SimpleSetPredicate field="Day_of_month" booleanOperator="isIn">
             <Array n="1" type="string">&quot;12&quot;</Array>
            </SimpleSetPredicate>
           </Node>
          </Node>
         </Node>
        </Node>
        <Node id="9">
         <SimpleSetPredicate field="Day_of_week" booleanOperator="isIn">
          <Array n="3" type="string">&quot;2&quot;   &quot;3&quot;   &quot;5&quot;</Array>
         </SimpleSetPredicate>
         <Node id="18">
          <SimplePredicate field="Temperature_at_El_Monte" operator="lessOrEqual" value="51.44"/>
          <Node id="36">
           <SimplePredicate field="Inversion_base_temperature" operator="lessOrEqual" value="46.67"/>
           <Node id="64" score="3.75">
            <SimplePredicate field="pressure_height" operator="lessOrEqual" value="5585"/>
           </Node>
           <Node id="65" score="5.5">
            <SimplePredicate field="pressure_height" operator="greaterThan" value="5585"/>
           </Node>
          </Node>
          <Node id="37">
           <SimplePredicate field="Inversion_base_temperature" operator="greaterThan" value="46.67"/>
           <Node id="66">
            <SimplePredicate field="Inversion_base_temperature" operator="lessOrEqual" value="54.77"/>
            <Node id="82" score="4.75">
             <SimpleSetPredicate field="Day_of_month" booleanOperator="isIn">
              <Array n="27" type="string">&quot;1&quot;   &quot;2&quot;   &quot;3&quot;   &quot;4&quot;   &quot;5&quot;   &quot;7&quot;   &quot;8&quot;   &quot;10&quot;   &quot;11&quot;   &quot;12&quot;   &quot;15&quot;   &quot;16&quot;   &quot;17&quot;   &quot;18&quot;   &quot;19&quot;   &quot;20&quot;   &quot;21&quot;   &quot;22&quot;   &quot;23&quot;   &quot;24&quot;   &quot;25&quot;   &quot;26&quot;   &quot;27&quot;   &quot;28&quot;   &quot;29&quot;   &quot;30&quot;   &quot;31&quot;</Array>
             </SimpleSetPredicate>
            </Node>
            <Node id="83">
             <SimpleSetPredicate field="Day_of_month" booleanOperator="isIn">
              <Array n="4" type="string">&quot;6&quot;   &quot;9&quot;   &quot;13&quot;   &quot;14&quot;</Array>
             </SimpleSetPredicate>
             <Node id="92" score="6">
              <SimplePredicate field="Pressure_gradient" operator="lessOrEqual" value="26"/>
             </Node>
             <Node id="93" score="7">
              <SimplePredicate field="Pressure_gradient" operator="greaterThan" value="26"/>
             </Node>
            </Node>
           </Node>
           <Node id="67" score="8">
            <SimplePredicate field="Inversion_base_temperature" operator="greaterThan" value="54.77"/>
           </Node>
          </Node>
         </Node>
         <Node id="19">
          <SimplePredicate field="Temperature_at_El_Monte" operator="greaterThan" value="51.44"/>
          <Node id="38">
           <SimplePredicate field="Temperature_at_Sandburg" operator="lessOrEqual" value="64"/>
           <Node id="68" score="12">
            <SimplePredicate field="Temperature_at_El_Monte" operator="lessOrEqual" value="52.79"/>
           </Node>
           <Node id="69">
            <SimplePredicate field="Temperature_at_El_Monte" operator="greaterThan" value="52.79"/>
            <Node id="84" score="4">
             <SimpleSetPredicate field="Day_of_month" booleanOperator="isIn">
              <Array n="29" type="string">&quot;1&quot;   &quot;2&quot;   &quot;3&quot;   &quot;4&quot;   &quot;5&quot;   &quot;6&quot;   &quot;7&quot;   &quot;9&quot;   &quot;10&quot;   &quot;11&quot;   &quot;12&quot;   &quot;13&quot;   &quot;14&quot;   &quot;15&quot;   &quot;17&quot;   &quot;18&quot;   &quot;19&quot;   &quot;20&quot;   &quot;21&quot;   &quot;22&quot;   &quot;23&quot;   &quot;24&quot;   &quot;25&quot;   &quot;26&quot;   &quot;27&quot;   &quot;28&quot;   &quot;29&quot;   &quot;30&quot;   &quot;31&quot;</Array>
             </SimpleSetPredicate>
            </Node>
            <Node id="85" score="7.4">
             <SimpleSetPredicate field="Day_of_month" booleanOperator="isIn">
              <Array n="2" type="string">&quot;8&quot;   &quot;16&quot;</Array>
             </SimpleSetPredicate>
            </Node>
           </Node>
          </Node>
          <Node id="39" score="14">
           <SimplePredicate field="Temperature_at_Sandburg" operator="greaterThan" value="64"/>
          </Node>
         </Node>
        </Node>
       </Node>
       <Node id="5">
        <SimpleSetPredicate field="Day_of_month" booleanOperator="isIn">
         <Array n="13" type="string">&quot;2&quot;   &quot;3&quot;   &quot;4&quot;   &quot;17&quot;   &quot;18&quot;   &quot;20&quot;   &quot;21&quot;   &quot;22&quot;   &quot;25&quot;   &quot;26&quot;   &quot;27&quot;   &quot;28&quot;   &quot;31&quot;</Array>
        </SimpleSetPredicate>
        <Node id="10">
         <SimplePredicate field="Temperature_at_El_Monte" operator="lessOrEqual" value="58.73"/>
         <Node id="20" score="4">
          <SimplePredicate field="pressure_height" operator="lessOrEqual" value="5635"/>
         </Node>
         <Node id="21">
          <SimplePredicate field="pressure_height" operator="greaterThan" value="5635"/>
          <Node id="40">
           <SimplePredicate field="Inversion_base_height" operator="lessOrEqual" value="3543"/>
           <Node id="70" score="14">
            <SimplePredicate field="Temperature_at_El_Monte" operator="lessOrEqual" value="47.3"/>
           </Node>
           <Node id="71">
            <SimplePredicate field="Temperature_at_El_Monte" operator="greaterThan" value="47.3"/>
            <Node id="86" score="9">
             <SimplePredicate field="pressure_height" operator="lessOrEqual" value="5690"/>
            </Node>
            <Node id="87">
             <SimplePredicate field="pressure_height" operator="greaterThan" value="5690"/>
             <Node id="94">
              <SimplePredicate field="Pressure_gradient" operator="lessOrEqual" value="25.5"/>
              <Node id="96" score="10.6">
               <SimpleSetPredicate field="Day_of_month" booleanOperator="isIn">
                <Array n="29" type="string">&quot;1&quot;   &quot;2&quot;   &quot;3&quot;   &quot;4&quot;   &quot;5&quot;   &quot;6&quot;   &quot;7&quot;   &quot;8&quot;   &quot;9&quot;   &quot;10&quot;   &quot;11&quot;   &quot;12&quot;   &quot;13&quot;   &quot;14&quot;   &quot;15&quot;   &quot;16&quot;   &quot;17&quot;   &quot;18&quot;   &quot;19&quot;   &quot;20&quot;   &quot;22&quot;   &quot;23&quot;   &quot;24&quot;   &quot;25&quot;   &quot;27&quot;   &quot;28&quot;   &quot;29&quot;   &quot;30&quot;   &quot;31&quot;</Array>
               </SimpleSetPredicate>
              </Node>
              <Node id="97" score="12">
               <SimpleSetPredicate field="Day_of_month" booleanOperator="isIn">
                <Array n="2" type="string">&quot;21&quot;   &quot;26&quot;</Array>
               </SimpleSetPredicate>
              </Node>
             </Node>
             <Node id="95" score="12.25">
              <SimplePredicate field="Pressure_gradient" operator="greaterThan" value="25.5"/>
             </Node>
            </Node>
           </Node>
          </Node>
          <Node id="41">
           <SimplePredicate field="Inversion_base_height" operator="greaterThan" value="3543"/>
           <Node id="72" score="6">
            <SimpleSetPredicate field="Day_of_month" booleanOperator="isIn">
             <Array n="27" type="string">&quot;1&quot;   &quot;2&quot;   &quot;4&quot;   &quot;5&quot;   &quot;6&quot;   &quot;7&quot;   &quot;8&quot;   &quot;9&quot;   &quot;10&quot;   &quot;11&quot;   &quot;12&quot;   &quot;13&quot;   &quot;14&quot;   &quot;15&quot;   &quot;16&quot;   &quot;17&quot;   &quot;18&quot;   &quot;19&quot;   &quot;20&quot;   &quot;21&quot;   &quot;22&quot;   &quot;23&quot;   &quot;24&quot;   &quot;27&quot;   &quot;29&quot;   &quot;30&quot;   &quot;31&quot;</Array>
            </SimpleSetPredicate>
           </Node>
           <Node id="73" score="9">
            <SimpleSetPredicate field="Day_of_month" booleanOperator="isIn">
             <Array n="4" type="string">&quot;3&quot;   &quot;25&quot;   &quot;26&quot;   &quot;28&quot;</Array>
            </SimpleSetPredicate>
           </Node>
          </Node>
         </Node>
        </Node>
        <Node id="11">
         <SimplePredicate field="Temperature_at_El_Monte" operator="greaterThan" value="58.73"/>
         <Node id="22">
          <SimpleSetPredicate field="Day_of_week" booleanOperator="isIn">
           <Array n="5" type="string">&quot;1&quot;   &quot;3&quot;   &quot;4&quot;   &quot;6&quot;   &quot;7&quot;</Array>
          </SimpleSetPredicate>
          <Node id="42" score="15">
           <SimplePredicate field="Inversion_base_height" operator="lessOrEqual" value="1997.5"/>
          </Node>
          <Node id="43" score="9">
           <SimplePredicate field="Inversion_base_height" operator="greaterThan" value="1997.5"/>
          </Node>
         </Node>
         <Node id="23">
          <SimpleSetPredicate field="Day_of_week" booleanOperator="isIn">
           <Array n="2" type="string">&quot;2&quot;   &quot;5&quot;</Array>
          </SimpleSetPredicate>
          <Node id="44">
           <SimplePredicate field="Wind_speed" operator="lessOrEqual" value="5.5"/>
           <Node id="74" score="22.4">
            <SimplePredicate field="Pressure_gradient" operator="lessOrEqual" value="18"/>
           </Node>
           <Node id="75" score="20">
            <SimplePredicate field="Pressure_gradient" operator="greaterThan" value="18"/>
           </Node>
          </Node>
          <Node id="45" score="16">
           <SimplePredicate field="Wind_speed" operator="greaterThan" value="5.5"/>
          </Node>
         </Node>
        </Node>
       </Node>
      </Node>
      <Node id="3">
       <SimplePredicate field="Temperature_at_Sandburg" operator="greaterThan" value="69.5"/>
       <Node id="6">
        <SimplePredicate field="Visibility" operator="lessOrEqual" value="75"/>
        <Node id="12">
         <SimplePredicate field="Inversion_base_height" operator="lessOrEqual" value="1469.5"/>
         <Node id="24">
          <SimpleSetPredicate field="Day_of_week" booleanOperator="isIn">
           <Array n="3" type="string">&quot;4&quot;   &quot;6&quot;   &quot;7&quot;</Array>
          </SimpleSetPredicate>
          <Node id="46">
           <SimplePredicate field="Inversion_base_height" operator="lessOrEqual" value="1189"/>
           <Node id="76" score="19">
            <SimplePredicate field="Inversion_base_temperature" operator="lessOrEqual" value="82.22"/>
           </Node>
           <Node id="77" score="18">
            <SimplePredicate field="Inversion_base_temperature" operator="greaterThan" value="82.22"/>
           </Node>
          </Node>
          <Node id="47" score="22">
           <SimplePredicate field="Inversion_base_height" operator="greaterThan" value="1189"/>
          </Node>
         </Node>
         <Node id="25">
          <SimpleSetPredicate field="Day_of_week" booleanOperator="isIn">
           <Array n="4" type="string">&quot;1&quot;   &quot;2&quot;   &quot;3&quot;   &quot;5&quot;</Array>
          </SimpleSetPredicate>
          <Node id="48" score="23.8">
           <SimplePredicate field="Humidity" operator="lessOrEqual" value="70.5"/>
          </Node>
          <Node id="49">
           <SimplePredicate field="Humidity" operator="greaterThan" value="70.5"/>
           <Node id="78">
            <SimplePredicate field="Temperature_at_El_Monte" operator="lessOrEqual" value="72.41"/>
            <Node id="88" score="27.4">
             <SimplePredicate field="Temperature_at_Sandburg" operator="lessOrEqual" value="79"/>
            </Node>
            <Node id="89" score="23">
             <SimplePredicate field="Temperature_at_Sandburg" operator="greaterThan" value="79"/>
            </Node>
           </Node>
           <Node id="79" score="31.75">
            <SimplePredicate field="Temperature_at_El_Monte" operator="greaterThan" value="72.41"/>
           </Node>
          </Node>
         </Node>
        </Node>
        <Node id="13">
         <SimplePredicate field="Inversion_base_height" operator="greaterThan" value="1469.5"/>
         <Node id="26" score="23">
          <SimplePredicate field="Temperature_at_Sandburg" operator="lessOrEqual" value="73"/>
         </Node>
         <Node id="27">
          <SimplePredicate field="Temperature_at_Sandburg" operator="greaterThan" value="73"/>
          <Node id="50" score="14">
           <SimplePredicate field="Inversion_base_temperature" operator="lessOrEqual" value="71.33"/>
          </Node>
          <Node id="51" score="18">
           <SimplePredicate field="Inversion_base_temperature" operator="greaterThan" value="71.33"/>
          </Node>
         </Node>
        </Node>
       </Node>
       <Node id="7">
        <SimplePredicate field="Visibility" operator="greaterThan" value="75"/>
        <Node id="14">
         <SimpleSetPredicate field="Day_of_month" booleanOperator="isIn">
          <Array n="25" type="string">&quot;1&quot;   &quot;2&quot;   &quot;3&quot;   &quot;4&quot;   &quot;5&quot;   &quot;6&quot;   &quot;8&quot;   &quot;10&quot;   &quot;11&quot;   &quot;12&quot;   &quot;13&quot;   &quot;14&quot;   &quot;15&quot;   &quot;17&quot;   &quot;18&quot;   &quot;20&quot;   &quot;21&quot;   &quot;22&quot;   &quot;23&quot;   &quot;24&quot;   &quot;25&quot;   &quot;26&quot;   &quot;27&quot;   &quot;29&quot;   &quot;31&quot;</Array>
         </SimpleSetPredicate>
         <Node id="28">
          <SimplePredicate field="Inversion_base_temperature" operator="lessOrEqual" value="69.71"/>
          <Node id="52" score="11.75">
           <SimpleSetPredicate field="Month" booleanOperator="isIn">
            <Array n="11" type="string">&quot;1&quot;   &quot;2&quot;   &quot;3&quot;   &quot;4&quot;   &quot;5&quot;   &quot;6&quot;   &quot;8&quot;   &quot;9&quot;   &quot;10&quot;   &quot;11&quot;   &quot;12&quot;</Array>
           </SimpleSetPredicate>
          </Node>
          <Node id="53" score="13">
           <SimpleSetPredicate field="Month" booleanOperator="isIn">
            <Array n="1" type="string">&quot;7&quot;</Array>
           </SimpleSetPredicate>
          </Node>
         </Node>
         <Node id="29">
          <SimplePredicate field="Inversion_base_temperature" operator="greaterThan" value="69.71"/>
          <Node id="54">
           <SimpleSetPredicate field="Day_of_week" booleanOperator="isIn">
            <Array n="6" type="string">&quot;1&quot;   &quot;2&quot;   &quot;3&quot;   &quot;5&quot;   &quot;6&quot;   &quot;7&quot;</Array>
           </SimpleSetPredicate>
           <Node id="80" score="13">
            <SimpleSetPredicate field="Day_of_month" booleanOperator="isIn">
             <Array n="27" type="string">&quot;1&quot;   &quot;2&quot;   &quot;3&quot;   &quot;4&quot;   &quot;5&quot;   &quot;6&quot;   &quot;7&quot;   &quot;9&quot;   &quot;10&quot;   &quot;11&quot;   &quot;12&quot;   &quot;13&quot;   &quot;15&quot;   &quot;16&quot;   &quot;17&quot;   &quot;18&quot;   &quot;19&quot;   &quot;20&quot;   &quot;22&quot;   &quot;24&quot;   &quot;25&quot;   &quot;26&quot;   &quot;27&quot;   &quot;28&quot;   &quot;29&quot;   &quot;30&quot;   &quot;31&quot;</Array>
            </SimpleSetPredicate>
           </Node>
           <Node id="81">
            <SimpleSetPredicate field="Day_of_month" booleanOperator="isIn">
             <Array n="4" type="string">&quot;8&quot;   &quot;14&quot;   &quot;21&quot;   &quot;23&quot;</Array>
            </SimpleSetPredicate>
            <Node id="90" score="15">
             <SimpleSetPredicate field="Day_of_month" booleanOperator="isIn">
              <Array n="29" type="string">&quot;1&quot;   &quot;2&quot;   &quot;3&quot;   &quot;4&quot;   &quot;5&quot;   &quot;6&quot;   &quot;7&quot;   &quot;9&quot;   &quot;10&quot;   &quot;11&quot;   &quot;12&quot;   &quot;13&quot;   &quot;15&quot;   &quot;16&quot;   &quot;17&quot;   &quot;18&quot;   &quot;19&quot;   &quot;20&quot;   &quot;21&quot;   &quot;22&quot;   &quot;23&quot;   &quot;24&quot;   &quot;25&quot;   &quot;26&quot;   &quot;27&quot;   &quot;28&quot;   &quot;29&quot;   &quot;30&quot;   &quot;31&quot;</Array>
             </SimpleSetPredicate>
            </Node>
            <Node id="91" score="17">
             <SimpleSetPredicate field="Day_of_month" booleanOperator="isIn">
              <Array n="2" type="string">&quot;8&quot;   &quot;14&quot;</Array>
             </SimpleSetPredicate>
            </Node>
           </Node>
          </Node>
          <Node id="55" score="26">
           <SimpleSetPredicate field="Day_of_week" booleanOperator="isIn">
            <Array n="1" type="string">&quot;4&quot;</Array>
           </SimpleSetPredicate>
          </Node>
         </Node>
        </Node>
        <Node id="15">
         <SimpleSetPredicate field="Day_of_month" booleanOperator="isIn">
          <Array n="6" type="string">&quot;7&quot;   &quot;9&quot;   &quot;16&quot;   &quot;19&quot;   &quot;28&quot;   &quot;30&quot;</Array>
         </SimpleSetPredicate>
         <Node id="30" score="19.25">
          <SimplePredicate field="Humidity" operator="lessOrEqual" value="67"/>
         </Node>
         <Node id="31">
          <SimplePredicate field="Humidity" operator="greaterThan" value="67"/>
          <Node id="56" score="22">
           <SimplePredicate field="Visibility" operator="lessOrEqual" value="95"/>
          </Node>
          <Node id="57" score="24.75">
           <SimplePredicate field="Visibility" operator="greaterThan" value="95"/>
          </Node>
         </Node>
        </Node>
       </Node>
      </Node>
     </Node>
    </TreeModel>
   </Segment>
   <Segment id="3">
    <True/>
    <TreeModel modelName="randomForest_Model" functionName="regression" algorithmName="randomForest" splitCharacteristic="binarySplit">
     <MiningSchema>
      <MiningField name="average_ozone_reading" usageType="predicted" invalidValueTreatment="asIs"/>
      <MiningField name="Month" usageType="active" invalidValueTreatment="asIs"/>
      <MiningField name="Day_of_month" usageType="active" invalidValueTreatment="asIs"/>
      <MiningField name="Day_of_week" usageType="active" invalidValueTreatment="asIs"/>
      <MiningField name="pressure_height" usageType="active" invalidValueTreatment="asIs"/>
      <MiningField name="Wind_speed" usageType="active" invalidValueTreatment="asIs"/>
      <MiningField name="Humidity" usageType="active" invalidValueTreatment="asIs"/>
      <MiningField name="Temperature_at_Sandburg" usageType="active" invalidValueTreatment="asIs"/>
      <MiningField name="Temperature_at_El_Monte" usageType="active" invalidValueTreatment="asIs"/>
      <MiningField name="Inversion_base_height" usageType="active" invalidValueTreatment="asIs"/>
      <MiningField name="Pressure_gradient" usageType="active" invalidValueTreatment="asIs"/>
      <MiningField name="Inversion_base_temperature" usageType="active" invalidValueTreatment="asIs"/>
      <MiningField name="Visibility" usageType="active" invalidValueTreatment="asIs"/>
     </MiningSchema>
     <Node id="1">
      <True/>
      <Node id="2">
       <SimplePredicate field="Temperature_at_El_Monte" operator="lessOrEqual" value="63.05"/>
       <Node id="4">
        <SimplePredicate field="pressure_height" operator="lessOrEqual" value="5685"/>
        <Node id="8">
         <SimplePredicate field="Humidity" operator="lessOrEqual" value="71"/>
         <Node id="16">
          <SimplePredicate field="Inversion_base_temperature" operator="lessOrEqual" value="35.78"/>
          <Node id="28">
           <SimpleSetPredicate field="Day_of_month" booleanOperator="isIn">
            <Array n="30" type="string">&quot;1&quot;   &quot;2&quot;   &quot;3&quot;   &quot;4&quot;   &quot;5&quot;   &quot;6&quot;   &quot;7&quot;   &quot;8&quot;   &quot;10&quot;   &quot;11&quot;   &quot;12&quot;   &quot;13&quot;   &quot;14&quot;   &quot;15&quot;   &quot;16&quot;   &quot;17&quot;   &quot;18&quot;   &quot;19&quot;   &quot;20&quot;   &quot;21&quot;   &quot;22&quot;   &quot;23&quot;   &quot;24&quot;   &quot;25&quot;   &quot;26&quot;   &quot;27&quot;   &quot;28&quot;   &quot;29&quot;   &quot;30&quot;   &quot;31&quot;</Array>
           </SimpleSetPredicate>
           <Node id="46" score="3">
            <SimpleSetPredicate field="Day_of_week" booleanOperator="isIn">
             <Array n="5" type="string">&quot;2&quot;   &quot;3&quot;   &quot;4&quot;   &quot;6&quot;   &quot;7&quot;</Array>
            </SimpleSetPredicate>
           </Node>
           <Node id="47" score="4">
            <SimpleSetPredicate field="Day_of_week" booleanOperator="isIn">
             <Array n="2" type="string">&quot;1&quot;   &quot;5&quot;</Array>
            </SimpleSetPredicate>
           </Node>
          </Node>
          <Node id="29" score="6">
           <SimpleSetPredicate field="Day_of_month" booleanOperator="isIn">
            <Array n="1" type="string">&quot;9&quot;</Array>
           </SimpleSetPredicate>
          </Node>
         </Node>
         <Node id="17">
          <SimplePredicate field="Inversion_base_temperature" operator="greaterThan" value="35.78"/>
          <Node id="30" score="5.25">
           <SimpleSetPredicate field="Month" booleanOperator="isIn">
            <Array n="8" type="string">&quot;1&quot;   &quot;6&quot;   &quot;7&quot;   &quot;8&quot;   &quot;9&quot;   &quot;10&quot;   &quot;11&quot;   &quot;12&quot;</Array>
           </SimpleSetPredicate>
          </Node>
          <Node id="31">
           <SimpleSetPredicate field="Month" booleanOperator="isIn">
            <Array n="4" type="string">&quot;2&quot;   &quot;3&quot;   &quot;4&quot;   &quot;5&quot;</Array>
           </SimpleSetPredicate>
           <Node id="48" score="12">
            <SimplePredicate field="Pressure_gradient" operator="lessOrEqual" value="22"/>
           </Node>
           <Node id="49">
            <SimplePredicate field="Pressure_gradient" operator="greaterThan" value="22"/>
            <Node id="66">
             <SimplePredicate field="Temperature_at_El_Monte" operator="lessOrEqual" value="40.73"/>
             <Node id="78" score="6">
              <SimpleSetPredicate field="Month" booleanOperator="isIn">
               <Array n="11" type="string">&quot;1&quot;   &quot;2&quot;   &quot;4&quot;   &quot;5&quot;   &quot;6&quot;   &quot;7&quot;   &quot;8&quot;   &quot;9&quot;   &quot;10&quot;   &quot;11&quot;   &quot;12&quot;</Array>
              </SimpleSetPredicate>
             </Node>
             <Node id="79" score="7.4">
              <SimpleSetPredicate field="Month" booleanOperator="isIn">
               <Array n="1" type="string">&quot;3&quot;</Array>
              </SimpleSetPredicate>
             </Node>
            </Node>
            <Node id="67">
             <SimplePredicate field="Temperature_at_El_Monte" operator="greaterThan" value="40.73"/>
             <Node id="80">
              <SimplePredicate field="Wind_speed" operator="lessOrEqual" value="6.5"/>
              <Node id="90" score="9">
               <SimplePredicate field="Inversion_base_temperature" operator="lessOrEqual" value="51.8"/>
              </Node>
              <Node id="91" score="8">
               <SimplePredicate field="Inversion_base_temperature" operator="greaterThan" value="51.8"/>
              </Node>
             </Node>
             <Node id="81" score="10">
              <SimplePredicate field="Wind_speed" operator="greaterThan" value="6.5"/>
             </Node>
            </Node>
           </Node>
          </Node>
         </Node>
        </Node>
        <Node id="9">
         <SimplePredicate field="Humidity" operator="greaterThan" value="71"/>
         <Node id="18">
          <SimplePredicate field="Temperature_at_El_Monte" operator="lessOrEqual" value="48.65"/>
          <Node id="32" score="2">
           <SimplePredicate field="Pressure_gradient" operator="lessOrEqual" value="91"/>
          </Node>
          <Node id="33" score="3">
           <SimplePredicate field="Pressure_gradient" operator="greaterThan" value="91"/>
          </Node>
         </Node>
         <Node id="19" score="4.75">
          <SimplePredicate field="Temperature_at_El_Monte" operator="greaterThan" value="48.65"/>
         </Node>
        </Node>
       </Node>
       <Node id="5">
        <SimplePredicate field="pressure_height" operator="greaterThan" value="5685"/>
        <Node id="10">
         <SimplePredicate field="Visibility" operator="lessOrEqual" value="55"/>
         <Node id="20">
          <SimpleSetPredicate field="Day_of_month" booleanOperator="isIn">
           <Array n="30" type="string">&quot;1&quot;   &quot;2&quot;   &quot;3&quot;   &quot;4&quot;   &quot;5&quot;   &quot;6&quot;   &quot;7&quot;   &quot;8&quot;   &quot;9&quot;   &quot;10&quot;   &quot;11&quot;   &quot;12&quot;   &quot;13&quot;   &quot;14&quot;   &quot;16&quot;   &quot;17&quot;   &quot;18&quot;   &quot;19&quot;   &quot;20&quot;   &quot;21&quot;   &quot;22&quot;   &quot;23&quot;   &quot;24&quot;   &quot;25&quot;   &quot;26&quot;   &quot;27&quot;   &quot;28&quot;   &quot;29&quot;   &quot;30&quot;   &quot;31&quot;</Array>
          </SimpleSetPredicate>
          <Node id="34" score="12">
           <SimplePredicate field="Visibility" operator="lessOrEqual" value="11.5"/>
          </Node>
          <Node id="35" score="12.75">
           <SimplePredicate field="Visibility" operator="greaterThan" value="11.5"/>
          </Node>
         </Node>
         <Node id="21" score="17">
          <SimpleSetPredicate field="Day_of_month" booleanOperator="isIn">
           <Array n="1" type="string">&quot;15&quot;</Array>
          </SimpleSetPredicate>
         </Node>
        </Node>
        <Node id="11">
         <SimplePredicate field="Visibility" operator="greaterThan" value="55"/>
         <Node id="22">
          <SimplePredicate field="Pressure_gradient" operator="lessOrEqual" value="28"/>
          <Node id="36">
           <SimplePredicate field="Humidity" operator="lessOrEqual" value="24.5"/>
           <Node id="50" score="4">
            <SimpleSetPredicate field="Day_of_month" booleanOperator="isIn">
             <Array n="27" type="string">&quot;1&quot;   &quot;2&quot;   &quot;3&quot;   &quot;4&quot;   &quot;5&quot;   &quot;6&quot;   &quot;7&quot;   &quot;8&quot;   &quot;9&quot;   &quot;10&quot;   &quot;11&quot;   &quot;12&quot;   &quot;13&quot;   &quot;14&quot;   &quot;15&quot;   &quot;16&quot;   &quot;17&quot;   &quot;18&quot;   &quot;19&quot;   &quot;21&quot;   &quot;22&quot;   &quot;23&quot;   &quot;24&quot;   &quot;25&quot;   &quot;28&quot;   &quot;30&quot;   &quot;31&quot;</Array>
            </SimpleSetPredicate>
           </Node>
           <Node id="51" score="6.6">
            <SimpleSetPredicate field="Day_of_month" booleanOperator="isIn">
             <Array n="4" type="string">&quot;20&quot;   &quot;26&quot;   &quot;27&quot;   &quot;29&quot;</Array>
            </SimpleSetPredicate>
           </Node>
          </Node>
          <Node id="37">
           <SimplePredicate field="Humidity" operator="greaterThan" value="24.5"/>
           <Node id="52">
            <SimpleSetPredicate field="Day_of_week" booleanOperator="isIn">
             <Array n="5" type="string">&quot;1&quot;   &quot;3&quot;   &quot;5&quot;   &quot;6&quot;   &quot;7&quot;</Array>
            </SimpleSetPredicate>
            <Node id="68">
             <SimplePredicate field="pressure_height" operator="lessOrEqual" value="5725"/>
             <Node id="82" score="5.5">
              <SimpleSetPredicate field="Month" booleanOperator="isIn">
               <Array n="10" type="string">&quot;1&quot;   &quot;2&quot;   &quot;4&quot;   &quot;5&quot;   &quot;6&quot;   &quot;7&quot;   &quot;8&quot;   &quot;9&quot;   &quot;11&quot;   &quot;12&quot;</Array>
              </SimpleSetPredicate>
             </Node>
             <Node id="83" score="7.33333333333333">
              <SimpleSetPredicate field="Month" booleanOperator="isIn">
               <Array n="2" type="string">&quot;3&quot;   &quot;10&quot;</Array>
              </SimpleSetPredicate>
             </Node>
            </Node>
            <Node id="69">
             <SimplePredicate field="pressure_height" operator="greaterThan" value="5725"/>
             <Node id="84" score="7.6">
              <SimplePredicate field="Visibility" operator="lessOrEqual" value="110"/>
             </Node>
             <Node id="85" score="10.5">
              <SimplePredicate field="Visibility" operator="greaterThan" value="110"/>
             </Node>
            </Node>
           </Node>
           <Node id="53" score="12.75">
            <SimpleSetPredicate field="Day_of_week" booleanOperator="isIn">
             <Array n="2" type="string">&quot;2&quot;   &quot;4&quot;</Array>
            </SimpleSetPredicate>
           </Node>
          </Node>
         </Node>
         <Node id="23">
          <SimplePredicate field="Pressure_gradient" operator="greaterThan" value="28"/>
          <Node id="38">
           <SimpleSetPredicate field="Month" booleanOperator="isIn">
            <Array n="9" type="string">&quot;1&quot;   &quot;2&quot;   &quot;5&quot;   &quot;7&quot;   &quot;8&quot;   &quot;9&quot;   &quot;10&quot;   &quot;11&quot;   &quot;12&quot;</Array>
           </SimpleSetPredicate>
           <Node id="54" score="5.5">
            <SimplePredicate field="pressure_height" operator="lessOrEqual" value="5760"/>
           </Node>
           <Node id="55">
            <SimplePredicate field="pressure_height" operator="greaterThan" value="5760"/>
            <Node id="70" score="9">
             <SimpleSetPredicate field="Day_of_week" booleanOperator="isIn">
              <Array n="6" type="string">&quot;1&quot;   &quot;3&quot;   &quot;4&quot;   &quot;5&quot;   &quot;6&quot;   &quot;7&quot;</Array>
             </SimpleSetPredicate>
            </Node>
            <Node id="71" score="12">
             <SimpleSetPredicate field="Day_of_week" booleanOperator="isIn">
              <Array n="1" type="string">&quot;2&quot;</Array>
             </SimpleSetPredicate>
            </Node>
           </Node>
          </Node>
          <Node id="39">
           <SimpleSetPredicate field="Month" booleanOperator="isIn">
            <Array n="3" type="string">&quot;3&quot;   &quot;4&quot;   &quot;6&quot;</Array>
           </SimpleSetPredicate>
           <Node id="56">
            <SimplePredicate field="pressure_height" operator="lessOrEqual" value="5720"/>
            <Node id="72" score="11">
             <SimplePredicate field="Visibility" operator="lessOrEqual" value="275"/>
            </Node>
            <Node id="73" score="12.6">
             <SimplePredicate field="Visibility" operator="greaterThan" value="275"/>
            </Node>
           </Node>
           <Node id="57" score="16">
            <SimplePredicate field="pressure_height" operator="greaterThan" value="5720"/>
           </Node>
          </Node>
         </Node>
        </Node>
       </Node>
      </Node>
      <Node id="3">
       <SimplePredicate field="Temperature_at_El_Monte" operator="greaterThan" value="63.05"/>
       <Node id="6">
        <SimpleSetPredicate field="Day_of_month" booleanOperator="isIn">
         <Array n="24" type="string">&quot;1&quot;   &quot;2&quot;   &quot;3&quot;   &quot;4&quot;   &quot;5&quot;   &quot;6&quot;   &quot;7&quot;   &quot;8&quot;   &quot;9&quot;   &quot;10&quot;   &quot;12&quot;   &quot;14&quot;   &quot;16&quot;   &quot;17&quot;   &quot;18&quot;   &quot;19&quot;   &quot;20&quot;   &quot;22&quot;   &quot;23&quot;   &quot;24&quot;   &quot;26&quot;   &quot;28&quot;   &quot;29&quot;   &quot;31&quot;</Array>
        </SimpleSetPredicate>
        <Node id="12" score="12.25">
         <SimplePredicate field="Humidity" operator="lessOrEqual" value="45"/>
        </Node>
        <Node id="13">
         <SimplePredicate field="Humidity" operator="greaterThan" value="45"/>
         <Node id="24">
          <SimplePredicate field="Inversion_base_height" operator="lessOrEqual" value="1536.5"/>
          <Node id="40">
           <SimplePredicate field="Temperature_at_El_Monte" operator="lessOrEqual" value="71.06"/>
           <Node id="58">
            <SimplePredicate field="Inversion_base_height" operator="lessOrEqual" value="1284"/>
            <Node id="74">
             <SimplePredicate field="Temperature_at_Sandburg" operator="lessOrEqual" value="75"/>
             <Node id="86" score="17.75">
              <SimplePredicate field="Pressure_gradient" operator="lessOrEqual" value="5"/>
             </Node>
             <Node id="87">
              <SimplePredicate field="Pressure_gradient" operator="greaterThan" value="5"/>
              <Node id="92" score="22">
               <SimplePredicate field="Inversion_base_height" operator="lessOrEqual" value="591.5"/>
              </Node>
              <Node id="93" score="20">
               <SimplePredicate field="Inversion_base_height" operator="greaterThan" value="591.5"/>
              </Node>
             </Node>
            </Node>
            <Node id="75">
             <SimplePredicate field="Temperature_at_Sandburg" operator="greaterThan" value="75"/>
             <Node id="88" score="16">
              <SimplePredicate field="Inversion_base_height" operator="lessOrEqual" value="773.5"/>
             </Node>
             <Node id="89" score="13.75">
              <SimplePredicate field="Inversion_base_height" operator="greaterThan" value="773.5"/>
             </Node>
            </Node>
           </Node>
           <Node id="59" score="23.75">
            <SimplePredicate field="Inversion_base_height" operator="greaterThan" value="1284"/>
           </Node>
          </Node>
          <Node id="41">
           <SimplePredicate field="Temperature_at_El_Monte" operator="greaterThan" value="71.06"/>
           <Node id="60">
            <SimpleSetPredicate field="Day_of_month" booleanOperator="isIn">
             <Array n="27" type="string">&quot;1&quot;   &quot;2&quot;   &quot;3&quot;   &quot;4&quot;   &quot;5&quot;   &quot;6&quot;   &quot;8&quot;   &quot;9&quot;   &quot;10&quot;   &quot;11&quot;   &quot;12&quot;   &quot;13&quot;   &quot;15&quot;   &quot;16&quot;   &quot;17&quot;   &quot;18&quot;   &quot;19&quot;   &quot;21&quot;   &quot;22&quot;   &quot;23&quot;   &quot;24&quot;   &quot;25&quot;   &quot;27&quot;   &quot;28&quot;   &quot;29&quot;   &quot;30&quot;   &quot;31&quot;</Array>
            </SimpleSetPredicate>
            <Node id="76" score="20.3333333333333">
             <SimplePredicate field="pressure_height" operator="lessOrEqual" value="5905"/>
            </Node>
            <Node id="77" score="23.3333333333333">
             <SimplePredicate field="pressure_height" operator="greaterThan" value="5905"/>
            </Node>
           </Node>
           <Node id="61" score="27.75">
            <SimpleSetPredicate field="Day_of_month" booleanOperator="isIn">
             <Array n="4" type="string">&quot;7&quot;   &quot;14&quot;   &quot;20&quot;   &quot;26&quot;</Array>
            </SimpleSetPredicate>
           </Node>
          </Node>
         </Node>
         <Node id="25">
          <SimplePredicate field="Inversion_base_height" operator="greaterThan" value="1536.5"/>
          <Node id="42" score="14.3333333333333">
           <SimpleSetPredicate field="Month" booleanOperator="isIn">
            <Array n="9" type="string">&quot;1&quot;   &quot;2&quot;   &quot;3&quot;   &quot;4&quot;   &quot;5&quot;   &quot;8&quot;   &quot;10&quot;   &quot;11&quot;   &quot;12&quot;</Array>
           </SimpleSetPredicate>
          </Node>
          <Node id="43">
           <SimpleSetPredicate field="Month" booleanOperator="isIn">
            <Array n="3" type="string">&quot;6&quot;   &quot;7&quot;   &quot;9&quot;</Array>
           </SimpleSetPredicate>
           <Node id="62" score="14">
            <SimplePredicate field="Wind_speed" operator="lessOrEqual" value="4"/>
           </Node>
           <Node id="63" score="19">
            <SimplePredicate field="Wind_speed" operator="greaterThan" value="4"/>
           </Node>
          </Node>
         </Node>
        </Node>
       </Node>
       <Node id="7">
        <SimpleSetPredicate field="Day_of_month" booleanOperator="isIn">
         <Array n="7" type="string">&quot;11&quot;   &quot;13&quot;   &quot;15&quot;   &quot;21&quot;   &quot;25&quot;   &quot;27&quot;   &quot;30&quot;</Array>
        </SimpleSetPredicate>
        <Node id="14">
         <SimplePredicate field="Temperature_at_Sandburg" operator="lessOrEqual" value="86.5"/>
         <Node id="26">
          <SimplePredicate field="Pressure_gradient" operator="lessOrEqual" value="50.5"/>
          <Node id="44">
           <SimplePredicate field="Humidity" operator="lessOrEqual" value="76.5"/>
           <Node id="64" score="23">
            <SimpleSetPredicate field="Month" booleanOperator="isIn">
             <Array n="10" type="string">&quot;1&quot;   &quot;2&quot;   &quot;3&quot;   &quot;4&quot;   &quot;7&quot;   &quot;8&quot;   &quot;9&quot;   &quot;10&quot;   &quot;11&quot;   &quot;12&quot;</Array>
            </SimpleSetPredicate>
           </Node>
           <Node id="65" score="27">
            <SimpleSetPredicate field="Month" booleanOperator="isIn">
             <Array n="2" type="string">&quot;5&quot;   &quot;6&quot;</Array>
            </SimpleSetPredicate>
           </Node>
          </Node>
          <Node id="45" score="28.6">
           <SimplePredicate field="Humidity" operator="greaterThan" value="76.5"/>
          </Node>
         </Node>
         <Node id="27" score="13">
          <SimplePredicate field="Pressure_gradient" operator="greaterThan" value="50.5"/>
         </Node>
        </Node>
        <Node id="15" score="35.6">
         <SimplePredicate field="Temperature_at_Sandburg" operator="greaterThan" value="86.5"/>
        </Node>
       </Node>
      </Node>
     </Node>
    </TreeModel>
   </Segment>
   <Segment id="4">
    <True/>
    <TreeModel modelName="randomForest_Model" functionName="regression" algorithmName="randomForest" splitCharacteristic="binarySplit">
     <MiningSchema>
      <MiningField name="average_ozone_reading" usageType="predicted" invalidValueTreatment="asIs"/>
      <MiningField name="Month" usageType="active" invalidValueTreatment="asIs"/>
      <MiningField name="Day_of_month" usageType="active" invalidValueTreatment="asIs"/>
      <MiningField name="Day_of_week" usageType="active" invalidValueTreatment="asIs"/>
      <MiningField name="pressure_height" usageType="active" invalidValueTreatment="asIs"/>
      <MiningField name="Wind_speed" usageType="active" invalidValueTreatment="asIs"/>
      <MiningField name="Humidity" usageType="active" invalidValueTreatment="asIs"/>
      <MiningField name="Temperature_at_Sandburg" usageType="active" invalidValueTreatment="asIs"/>
      <MiningField name="Temperature_at_El_Monte" usageType="active" invalidValueTreatment="asIs"/>
      <MiningField name="Inversion_base_height" usageType="active" invalidValueTreatment="asIs"/>
      <MiningField name="Pressure_gradient" usageType="active" invalidValueTreatment="asIs"/>
      <MiningField name="Inversion_base_temperature" usageType="active" invalidValueTreatment="asIs"/>
      <MiningField name="Visibility" usageType="active" invalidValueTreatment="asIs"/>
     </MiningSchema>
     <Node id="1">
      <True/>
      <Node id="2">
       <SimplePredicate field="Temperature_at_El_Monte" operator="lessOrEqual" value="58.1"/>
       <Node id="4">
        <SimplePredicate field="Inversion_base_height" operator="lessOrEqual" value="1430"/>
        <Node id="8">
         <SimplePredicate field="Inversion_base_height" operator="lessOrEqual" value="539"/>
         <Node id="16">
          <SimplePredicate field="Pressure_gradient" operator="lessOrEqual" value="21.5"/>
          <Node id="32" score="5">
           <SimplePredicate field="pressure_height" operator="lessOrEqual" value="5775"/>
          </Node>
          <Node id="33" score="9">
           <SimplePredicate field="pressure_height" operator="greaterThan" value="5775"/>
          </Node>
         </Node>
         <Node id="17" score="11.5">
          <SimplePredicate field="Pressure_gradient" operator="greaterThan" value="21.5"/>
         </Node>
        </Node>
        <Node id="9">
         <SimplePredicate field="Inversion_base_height" operator="greaterThan" value="539"/>
         <Node id="18" score="8">
          <SimplePredicate field="Temperature_at_El_Monte" operator="lessOrEqual" value="42.53"/>
         </Node>
         <Node id="19">
          <SimplePredicate field="Temperature_at_El_Monte" operator="greaterThan" value="42.53"/>
          <Node id="34" score="9.5">
           <SimpleSetPredicate field="Day_of_month" booleanOperator="isIn">
            <Array n="27" type="string">&quot;1&quot;   &quot;2&quot;   &quot;3&quot;   &quot;4&quot;   &quot;5&quot;   &quot;6&quot;   &quot;8&quot;   &quot;9&quot;   &quot;10&quot;   &quot;11&quot;   &quot;12&quot;   &quot;13&quot;   &quot;14&quot;   &quot;15&quot;   &quot;16&quot;   &quot;17&quot;   &quot;18&quot;   &quot;20&quot;   &quot;21&quot;   &quot;22&quot;   &quot;23&quot;   &quot;24&quot;   &quot;27&quot;   &quot;28&quot;   &quot;29&quot;   &quot;30&quot;   &quot;31&quot;</Array>
           </SimpleSetPredicate>
          </Node>
          <Node id="35">
           <SimpleSetPredicate field="Day_of_month" booleanOperator="isIn">
            <Array n="4" type="string">&quot;7&quot;   &quot;19&quot;   &quot;25&quot;   &quot;26&quot;</Array>
           </SimpleSetPredicate>
           <Node id="54" score="14.6666666666667">
            <SimplePredicate field="Wind_speed" operator="lessOrEqual" value="4.5"/>
           </Node>
           <Node id="55" score="12">
            <SimplePredicate field="Wind_speed" operator="greaterThan" value="4.5"/>
           </Node>
          </Node>
         </Node>
        </Node>
       </Node>
       <Node id="5">
        <SimplePredicate field="Inversion_base_height" operator="greaterThan" value="1430"/>
        <Node id="10">
         <SimplePredicate field="Wind_speed" operator="lessOrEqual" value="6.5"/>
         <Node id="20">
          <SimplePredicate field="Temperature_at_El_Monte" operator="lessOrEqual" value="49.73"/>
          <Node id="36">
           <SimplePredicate field="Pressure_gradient" operator="lessOrEqual" value="52.5"/>
           <Node id="56">
            <SimplePredicate field="Pressure_gradient" operator="lessOrEqual" value="41"/>
            <Node id="76">
             <SimpleSetPredicate field="Day_of_month" booleanOperator="isIn">
              <Array n="27" type="string">&quot;1&quot;   &quot;2&quot;   &quot;3&quot;   &quot;4&quot;   &quot;5&quot;   &quot;7&quot;   &quot;10&quot;   &quot;11&quot;   &quot;13&quot;   &quot;14&quot;   &quot;15&quot;   &quot;16&quot;   &quot;17&quot;   &quot;18&quot;   &quot;19&quot;   &quot;20&quot;   &quot;21&quot;   &quot;22&quot;   &quot;23&quot;   &quot;24&quot;   &quot;25&quot;   &quot;26&quot;   &quot;27&quot;   &quot;28&quot;   &quot;29&quot;   &quot;30&quot;   &quot;31&quot;</Array>
             </SimpleSetPredicate>
             <Node id="90" score="4">
              <SimplePredicate field="Humidity" operator="lessOrEqual" value="47.5"/>
             </Node>
             <Node id="91" score="5.25">
              <SimplePredicate field="Humidity" operator="greaterThan" value="47.5"/>
             </Node>
            </Node>
            <Node id="77">
             <SimpleSetPredicate field="Day_of_month" booleanOperator="isIn">
              <Array n="4" type="string">&quot;6&quot;   &quot;8&quot;   &quot;9&quot;   &quot;12&quot;</Array>
             </SimpleSetPredicate>
             <Node id="92">
              <SimplePredicate field="Temperature_at_El_Monte" operator="lessOrEqual" value="47.57"/>
              <Node id="104" score="6">
               <SimplePredicate field="Temperature_at_Sandburg" operator="lessOrEqual" value="46.5"/>
              </Node>
              <Node id="105">
               <SimplePredicate field="Temperature_at_Sandburg" operator="greaterThan" value="46.5"/>
               <Node id="108" score="7">
                <SimpleSetPredicate field="Day_of_week" booleanOperator="isIn">
                 <Array n="6" type="string">&quot;1&quot;   &quot;2&quot;   &quot;3&quot;   &quot;5&quot;   &quot;6&quot;   &quot;7&quot;</Array>
                </SimpleSetPredicate>
               </Node>
               <Node id="109" score="8">
                <SimpleSetPredicate field="Day_of_week" booleanOperator="isIn">
                 <Array n="1" type="string">&quot;4&quot;</Array>
                </SimpleSetPredicate>
               </Node>
              </Node>
             </Node>
             <Node id="93" score="6">
              <SimplePredicate field="Temperature_at_El_Monte" operator="greaterThan" value="47.57"/>
             </Node>
            </Node>
           </Node>
           <Node id="57" score="9">
            <SimplePredicate field="Pressure_gradient" operator="greaterThan" value="41"/>
           </Node>
          </Node>
          <Node id="37">
           <SimplePredicate field="Pressure_gradient" operator="greaterThan" value="52.5"/>
           <Node id="58">
            <SimpleSetPredicate field="Day_of_week" booleanOperator="isIn">
             <Array n="6" type="string">&quot;2&quot;   &quot;3&quot;   &quot;4&quot;   &quot;5&quot;   &quot;6&quot;   &quot;7&quot;</Array>
            </SimpleSetPredicate>
            <Node id="78" score="2">
             <SimpleSetPredicate field="Day_of_month" booleanOperator="isIn">
              <Array n="29" type="string">&quot;1&quot;   &quot;2&quot;   &quot;3&quot;   &quot;4&quot;   &quot;5&quot;   &quot;6&quot;   &quot;7&quot;   &quot;8&quot;   &quot;9&quot;   &quot;11&quot;   &quot;12&quot;   &quot;13&quot;   &quot;14&quot;   &quot;16&quot;   &quot;17&quot;   &quot;18&quot;   &quot;19&quot;   &quot;20&quot;   &quot;21&quot;   &quot;22&quot;   &quot;23&quot;   &quot;24&quot;   &quot;25&quot;   &quot;26&quot;   &quot;27&quot;   &quot;28&quot;   &quot;29&quot;   &quot;30&quot;   &quot;31&quot;</Array>
             </SimpleSetPredicate>
            </Node>
            <Node id="79" score="3">
             <SimpleSetPredicate field="Day_of_month" booleanOperator="isIn">
              <Array n="2" type="string">&quot;10&quot;   &quot;15&quot;</Array>
             </SimpleSetPredicate>
            </Node>
           </Node>
           <Node id="59" score="4.5">
            <SimpleSetPredicate field="Day_of_week" booleanOperator="isIn">
             <Array n="1" type="string">&quot;1&quot;</Array>
            </SimpleSetPredicate>
           </Node>
          </Node>
         </Node>
         <Node id="21">
          <SimplePredicate field="Temperature_at_El_Monte" operator="greaterThan" value="49.73"/>
          <Node id="38">
           <SimpleSetPredicate field="Month" booleanOperator="isIn">
            <Array n="9" type="string">&quot;1&quot;   &quot;2&quot;   &quot;4&quot;   &quot;5&quot;   &quot;7&quot;   &quot;9&quot;   &quot;10&quot;   &quot;11&quot;   &quot;12&quot;</Array>
           </SimpleSetPredicate>
           <Node id="60" score="4">
            <SimplePredicate field="Pressure_gradient" operator="lessOrEqual" value="-20.5"/>
           </Node>
           <Node id="61">
            <SimplePredicate field="Pressure_gradient" operator="greaterThan" value="-20.5"/>
            <Node id="80">
             <SimpleSetPredicate field="Day_of_week" booleanOperator="isIn">
              <Array n="5" type="string">&quot;3&quot;   &quot;4&quot;   &quot;5&quot;   &quot;6&quot;   &quot;7&quot;</Array>
             </SimpleSetPredicate>
             <Node id="94">
              <SimpleSetPredicate field="Day_of_month" booleanOperator="isIn">
               <Array n="30" type="string">&quot;1&quot;   &quot;2&quot;   &quot;3&quot;   &quot;4&quot;   &quot;5&quot;   &quot;6&quot;   &quot;7&quot;   &quot;8&quot;   &quot;9&quot;   &quot;10&quot;   &quot;11&quot;   &quot;12&quot;   &quot;13&quot;   &quot;14&quot;   &quot;15&quot;   &quot;16&quot;   &quot;17&quot;   &quot;18&quot;   &quot;19&quot;   &quot;20&quot;   &quot;21&quot;   &quot;23&quot;   &quot;24&quot;   &quot;25&quot;   &quot;26&quot;   &quot;27&quot;   &quot;28&quot;   &quot;29&quot;   &quot;30&quot;   &quot;31&quot;</Array>
              </SimpleSetPredicate>
              <Node id="106" score="6">
               <SimplePredicate field="Inversion_base_height" operator="lessOrEqual" value="2417.5"/>
              </Node>
              <Node id="107" score="5">
               <SimplePredicate field="Inversion_base_height" operator="greaterThan" value="2417.5"/>
              </Node>
             </Node>
             <Node id="95" score="7">
              <SimpleSetPredicate field="Day_of_month" booleanOperator="isIn">
               <Array n="1" type="string">&quot;22&quot;</Array>
              </SimpleSetPredicate>
             </Node>
            </Node>
            <Node id="81" score="9.5">
             <SimpleSetPredicate field="Day_of_week" booleanOperator="isIn">
              <Array n="2" type="string">&quot;1&quot;   &quot;2&quot;</Array>
             </SimpleSetPredicate>
            </Node>
           </Node>
          </Node>
          <Node id="39">
           <SimpleSetPredicate field="Month" booleanOperator="isIn">
            <Array n="3" type="string">&quot;3&quot;   &quot;6&quot;   &quot;8&quot;</Array>
           </SimpleSetPredicate>
           <Node id="62">
            <SimplePredicate field="Wind_speed" operator="lessOrEqual" value="5.5"/>
            <Node id="82" score="9">
             <SimplePredicate field="Pressure_gradient" operator="lessOrEqual" value="15"/>
            </Node>
            <Node id="83">
             <SimplePredicate field="Pressure_gradient" operator="greaterThan" value="15"/>
             <Node id="96" score="13">
              <SimplePredicate field="Inversion_base_height" operator="lessOrEqual" value="2450.5"/>
             </Node>
             <Node id="97" score="12">
              <SimplePredicate field="Inversion_base_height" operator="greaterThan" value="2450.5"/>
             </Node>
            </Node>
           </Node>
           <Node id="63" score="7">
            <SimplePredicate field="Wind_speed" operator="greaterThan" value="5.5"/>
           </Node>
          </Node>
         </Node>
        </Node>
        <Node id="11">
         <SimplePredicate field="Wind_speed" operator="greaterThan" value="6.5"/>
         <Node id="22">
          <SimpleSetPredicate field="Month" booleanOperator="isIn">
           <Array n="9" type="string">&quot;1&quot;   &quot;3&quot;   &quot;5&quot;   &quot;6&quot;   &quot;7&quot;   &quot;9&quot;   &quot;10&quot;   &quot;11&quot;   &quot;12&quot;</Array>
          </SimpleSetPredicate>
          <Node id="40" score="3.25">
           <SimplePredicate field="Wind_speed" operator="lessOrEqual" value="8"/>
          </Node>
          <Node id="41">
           <SimplePredicate field="Wind_speed" operator="greaterThan" value="8"/>
           <Node id="64" score="3">
            <SimplePredicate field="pressure_height" operator="lessOrEqual" value="5435"/>
           </Node>
           <Node id="65" score="2">
            <SimplePredicate field="pressure_height" operator="greaterThan" value="5435"/>
           </Node>
          </Node>
         </Node>
         <Node id="23">
          <SimpleSetPredicate field="Month" booleanOperator="isIn">
           <Array n="3" type="string">&quot;2&quot;   &quot;4&quot;   &quot;8&quot;</Array>
          </SimpleSetPredicate>
          <Node id="42" score="4.2">
           <SimplePredicate field="Inversion_base_temperature" operator="lessOrEqual" value="37.94"/>
          </Node>
          <Node id="43" score="6.2">
           <SimplePredicate field="Inversion_base_temperature" operator="greaterThan" value="37.94"/>
          </Node>
         </Node>
        </Node>
       </Node>
      </Node>
      <Node id="3">
       <SimplePredicate field="Temperature_at_El_Monte" operator="greaterThan" value="58.1"/>
       <Node id="6">
        <SimpleSetPredicate field="Day_of_month" booleanOperator="isIn">
         <Array n="17" type="string">&quot;1&quot;   &quot;2&quot;   &quot;3&quot;   &quot;4&quot;   &quot;8&quot;   &quot;10&quot;   &quot;14&quot;   &quot;16&quot;   &quot;17&quot;   &quot;20&quot;   &quot;21&quot;   &quot;22&quot;   &quot;23&quot;   &quot;24&quot;   &quot;26&quot;   &quot;28&quot;   &quot;29&quot;</Array>
        </SimpleSetPredicate>
        <Node id="12">
         <SimpleSetPredicate field="Day_of_month" booleanOperator="isIn">
          <Array n="26" type="string">&quot;1&quot;   &quot;2&quot;   &quot;3&quot;   &quot;4&quot;   &quot;5&quot;   &quot;6&quot;   &quot;7&quot;   &quot;8&quot;   &quot;9&quot;   &quot;10&quot;   &quot;11&quot;   &quot;12&quot;   &quot;13&quot;   &quot;15&quot;   &quot;17&quot;   &quot;18&quot;   &quot;19&quot;   &quot;20&quot;   &quot;21&quot;   &quot;22&quot;   &quot;25&quot;   &quot;26&quot;   &quot;27&quot;   &quot;28&quot;   &quot;30&quot;   &quot;31&quot;</Array>
         </SimpleSetPredicate>
         <Node id="24" score="9.75">
          <SimplePredicate field="Pressure_gradient" operator="lessOrEqual" value="-5.5"/>
         </Node>
         <Node id="25">
          <SimplePredicate field="Pressure_gradient" operator="greaterThan" value="-5.5"/>
          <Node id="44">
           <SimplePredicate field="Temperature_at_Sandburg" operator="lessOrEqual" value="73"/>
           <Node id="66">
            <SimpleSetPredicate field="Day_of_month" booleanOperator="isIn">
             <Array n="28" type="string">&quot;1&quot;   &quot;2&quot;   &quot;3&quot;   &quot;4&quot;   &quot;5&quot;   &quot;6&quot;   &quot;7&quot;   &quot;8&quot;   &quot;9&quot;   &quot;10&quot;   &quot;11&quot;   &quot;12&quot;   &quot;13&quot;   &quot;14&quot;   &quot;15&quot;   &quot;16&quot;   &quot;18&quot;   &quot;19&quot;   &quot;21&quot;   &quot;23&quot;   &quot;24&quot;   &quot;25&quot;   &quot;26&quot;   &quot;27&quot;   &quot;28&quot;   &quot;29&quot;   &quot;30&quot;   &quot;31&quot;</Array>
            </SimpleSetPredicate>
            <Node id="84" score="12">
             <SimpleSetPredicate field="Day_of_week" booleanOperator="isIn">
              <Array n="4" type="string">&quot;2&quot;   &quot;4&quot;   &quot;6&quot;   &quot;7&quot;</Array>
             </SimpleSetPredicate>
            </Node>
            <Node id="85">
             <SimpleSetPredicate field="Day_of_week" booleanOperator="isIn">
              <Array n="3" type="string">&quot;1&quot;   &quot;3&quot;   &quot;5&quot;</Array>
             </SimpleSetPredicate>
             <Node id="98" score="17">
              <SimplePredicate field="Visibility" operator="lessOrEqual" value="85"/>
             </Node>
             <Node id="99" score="16">
              <SimplePredicate field="Visibility" operator="greaterThan" value="85"/>
             </Node>
            </Node>
           </Node>
           <Node id="67" score="22">
            <SimpleSetPredicate field="Day_of_month" booleanOperator="isIn">
             <Array n="3" type="string">&quot;17&quot;   &quot;20&quot;   &quot;22&quot;</Array>
            </SimpleSetPredicate>
           </Node>
          </Node>
          <Node id="45">
           <SimplePredicate field="Temperature_at_Sandburg" operator="greaterThan" value="73"/>
           <Node id="68" score="11">
            <SimpleSetPredicate field="Day_of_month" booleanOperator="isIn">
             <Array n="27" type="string">&quot;1&quot;   &quot;2&quot;   &quot;4&quot;   &quot;5&quot;   &quot;6&quot;   &quot;7&quot;   &quot;9&quot;   &quot;10&quot;   &quot;11&quot;   &quot;12&quot;   &quot;13&quot;   &quot;14&quot;   &quot;15&quot;   &quot;16&quot;   &quot;17&quot;   &quot;18&quot;   &quot;19&quot;   &quot;22&quot;   &quot;23&quot;   &quot;24&quot;   &quot;25&quot;   &quot;26&quot;   &quot;27&quot;   &quot;28&quot;   &quot;29&quot;   &quot;30&quot;   &quot;31&quot;</Array>
            </SimpleSetPredicate>
           </Node>
           <Node id="69">
            <SimpleSetPredicate field="Day_of_month" booleanOperator="isIn">
             <Array n="4" type="string">&quot;3&quot;   &quot;8&quot;   &quot;20&quot;   &quot;21&quot;</Array>
            </SimpleSetPredicate>
            <Node id="86" score="15">
             <SimpleSetPredicate field="Day_of_month" booleanOperator="isIn">
              <Array n="30" type="string">&quot;1&quot;   &quot;2&quot;   &quot;3&quot;   &quot;4&quot;   &quot;5&quot;   &quot;6&quot;   &quot;7&quot;   &quot;9&quot;   &quot;10&quot;   &quot;11&quot;   &quot;12&quot;   &quot;13&quot;   &quot;14&quot;   &quot;15&quot;   &quot;16&quot;   &quot;17&quot;   &quot;18&quot;   &quot;19&quot;   &quot;20&quot;   &quot;21&quot;   &quot;22&quot;   &quot;23&quot;   &quot;24&quot;   &quot;25&quot;   &quot;26&quot;   &quot;27&quot;   &quot;28&quot;   &quot;29&quot;   &quot;30&quot;   &quot;31&quot;</Array>
             </SimpleSetPredicate>
            </Node>
            <Node id="87" score="17">
             <SimpleSetPredicate field="Day_of_month" booleanOperator="isIn">
              <Array n="1" type="string">&quot;8&quot;</Array>
             </SimpleSetPredicate>
            </Node>
           </Node>
          </Node>
         </Node>
        </Node>
        <Node id="13">
         <SimpleSetPredicate field="Day_of_month" booleanOperator="isIn">
          <Array n="5" type="string">&quot;14&quot;   &quot;16&quot;   &quot;23&quot;   &quot;24&quot;   &quot;29&quot;</Array>
         </SimpleSetPredicate>
         <Node id="26" score="23.25">
          <SimplePredicate field="Temperature_at_Sandburg" operator="lessOrEqual" value="77"/>
         </Node>
         <Node id="27">
          <SimplePredicate field="Temperature_at_Sandburg" operator="greaterThan" value="77"/>
          <Node id="46">
           <SimpleSetPredicate field="Day_of_week" booleanOperator="isIn">
            <Array n="5" type="string">&quot;1&quot;   &quot;3&quot;   &quot;4&quot;   &quot;6&quot;   &quot;7&quot;</Array>
           </SimpleSetPredicate>
           <Node id="70" score="14.5">
            <SimpleSetPredicate field="Day_of_month" booleanOperator="isIn">
             <Array n="29" type="string">&quot;1&quot;   &quot;2&quot;   &quot;3&quot;   &quot;4&quot;   &quot;5&quot;   &quot;6&quot;   &quot;7&quot;   &quot;8&quot;   &quot;9&quot;   &quot;10&quot;   &quot;11&quot;   &quot;12&quot;   &quot;13&quot;   &quot;15&quot;   &quot;16&quot;   &quot;17&quot;   &quot;18&quot;   &quot;19&quot;   &quot;20&quot;   &quot;21&quot;   &quot;22&quot;   &quot;23&quot;   &quot;25&quot;   &quot;26&quot;   &quot;27&quot;   &quot;28&quot;   &quot;29&quot;   &quot;30&quot;   &quot;31&quot;</Array>
            </SimpleSetPredicate>
           </Node>
           <Node id="71" score="17.25">
            <SimpleSetPredicate field="Day_of_month" booleanOperator="isIn">
             <Array n="2" type="string">&quot;14&quot;   &quot;24&quot;</Array>
            </SimpleSetPredicate>
           </Node>
          </Node>
          <Node id="47" score="22.5">
           <SimpleSetPredicate field="Day_of_week" booleanOperator="isIn">
            <Array n="2" type="string">&quot;2&quot;   &quot;5&quot;</Array>
           </SimpleSetPredicate>
          </Node>
         </Node>
        </Node>
       </Node>
       <Node id="7">
        <SimpleSetPredicate field="Day_of_month" booleanOperator="isIn">
         <Array n="14" type="string">&quot;5&quot;   &quot;6&quot;   &quot;7&quot;   &quot;9&quot;   &quot;11&quot;   &quot;12&quot;   &quot;13&quot;   &quot;15&quot;   &quot;18&quot;   &quot;19&quot;   &quot;25&quot;   &quot;27&quot;   &quot;30&quot;   &quot;31&quot;</Array>
        </SimpleSetPredicate>
        <Node id="14">
         <SimplePredicate field="Temperature_at_Sandburg" operator="lessOrEqual" value="85.5"/>
         <Node id="28">
          <SimpleSetPredicate field="Month" booleanOperator="isIn">
           <Array n="6" type="string">&quot;1&quot;   &quot;3&quot;   &quot;4&quot;   &quot;7&quot;   &quot;11&quot;   &quot;12&quot;</Array>
          </SimpleSetPredicate>
          <Node id="48">
           <SimplePredicate field="Temperature_at_El_Monte" operator="lessOrEqual" value="70.34"/>
           <Node id="72" score="22.8">
            <SimplePredicate field="Wind_speed" operator="lessOrEqual" value="8"/>
           </Node>
           <Node id="73" score="13">
            <SimplePredicate field="Wind_speed" operator="greaterThan" value="8"/>
           </Node>
          </Node>
          <Node id="49" score="14">
           <SimplePredicate field="Temperature_at_El_Monte" operator="greaterThan" value="70.34"/>
          </Node>
         </Node>
         <Node id="29">
          <SimpleSetPredicate field="Month" booleanOperator="isIn">
           <Array n="6" type="string">&quot;2&quot;   &quot;5&quot;   &quot;6&quot;   &quot;8&quot;   &quot;9&quot;   &quot;10&quot;</Array>
          </SimpleSetPredicate>
          <Node id="50" score="21">
           <SimpleSetPredicate field="Day_of_week" booleanOperator="isIn">
            <Array n="5" type="string">&quot;1&quot;   &quot;4&quot;   &quot;5&quot;   &quot;6&quot;   &quot;7&quot;</Array>
           </SimpleSetPredicate>
          </Node>
          <Node id="51">
           <SimpleSetPredicate field="Day_of_week" booleanOperator="isIn">
            <Array n="2" type="string">&quot;2&quot;   &quot;3&quot;</Array>
           </SimpleSetPredicate>
           <Node id="74" score="33">
            <SimplePredicate field="Inversion_base_height" operator="lessOrEqual" value="464"/>
           </Node>
           <Node id="75">
            <SimplePredicate field="Inversion_base_height" operator="greaterThan" value="464"/>
            <Node id="88">
             <SimplePredicate field="Visibility" operator="lessOrEqual" value="35"/>
             <Node id="100" score="28">
              <SimplePredicate field="Visibility" operator="lessOrEqual" value="18.5"/>
             </Node>
             <Node id="101" score="27">
              <SimplePredicate field="Visibility" operator="greaterThan" value="18.5"/>
             </Node>
            </Node>
            <Node id="89">
             <SimplePredicate field="Visibility" operator="greaterThan" value="35"/>
             <Node id="102" score="24">
              <SimpleSetPredicate field="Day_of_week" booleanOperator="isIn">
               <Array n="6" type="string">&quot;1&quot;   &quot;3&quot;   &quot;4&quot;   &quot;5&quot;   &quot;6&quot;   &quot;7&quot;</Array>
              </SimpleSetPredicate>
             </Node>
             <Node id="103" score="26">
              <SimpleSetPredicate field="Day_of_week" booleanOperator="isIn">
               <Array n="1" type="string">&quot;2&quot;</Array>
              </SimpleSetPredicate>
             </Node>
            </Node>
           </Node>
          </Node>
         </Node>
        </Node>
        <Node id="15">
         <SimplePredicate field="Temperature_at_Sandburg" operator="greaterThan" value="85.5"/>
         <Node id="30" score="23.5">
          <SimpleSetPredicate field="Day_of_month" booleanOperator="isIn">
           <Array n="28" type="string">&quot;1&quot;   &quot;2&quot;   &quot;3&quot;   &quot;4&quot;   &quot;5&quot;   &quot;7&quot;   &quot;8&quot;   &quot;9&quot;   &quot;10&quot;   &quot;11&quot;   &quot;12&quot;   &quot;13&quot;   &quot;14&quot;   &quot;15&quot;   &quot;16&quot;   &quot;17&quot;   &quot;18&quot;   &quot;19&quot;   &quot;20&quot;   &quot;21&quot;   &quot;22&quot;   &quot;23&quot;   &quot;24&quot;   &quot;25&quot;   &quot;26&quot;   &quot;28&quot;   &quot;29&quot;   &quot;31&quot;</Array>
          </SimpleSetPredicate>
         </Node>
         <Node id="31">
          <SimpleSetPredicate field="Day_of_month" booleanOperator="isIn">
           <Array n="3" type="string">&quot;6&quot;   &quot;27&quot;   &quot;30&quot;</Array>
          </SimpleSetPredicate>
          <Node id="52" score="38">
           <SimplePredicate field="Inversion_base_height" operator="lessOrEqual" value="713"/>
          </Node>
          <Node id="53" score="32.5">
           <SimplePredicate field="Inversion_base_height" operator="greaterThan" value="713"/>
          </Node>
         </Node>
        </Node>
       </Node>
      </Node>
     </Node>
    </TreeModel>
   </Segment>
   <Segment id="5">
    <True/>
    <TreeModel modelName="randomForest_Model" functionName="regression" algorithmName="randomForest" splitCharacteristic="binarySplit">
     <MiningSchema>
      <MiningField name="average_ozone_reading" usageType="predicted" invalidValueTreatment="asIs"/>
      <MiningField name="Month" usageType="active" invalidValueTreatment="asIs"/>
      <MiningField name="Day_of_month" usageType="active" invalidValueTreatment="asIs"/>
      <MiningField name="Day_of_week" usageType="active" invalidValueTreatment="asIs"/>
      <MiningField name="pressure_height" usageType="active" invalidValueTreatment="asIs"/>
      <MiningField name="Wind_speed" usageType="active" invalidValueTreatment="asIs"/>
      <MiningField name="Humidity" usageType="active" invalidValueTreatment="asIs"/>
      <MiningField name="Temperature_at_Sandburg" usageType="active" invalidValueTreatment="asIs"/>
      <MiningField name="Temperature_at_El_Monte" usageType="active" invalidValueTreatment="asIs"/>
      <MiningField name="Inversion_base_height" usageType="active" invalidValueTreatment="asIs"/>
      <MiningField name="Pressure_gradient" usageType="active" invalidValueTreatment="asIs"/>
      <MiningField name="Inversion_base_temperature" usageType="active" invalidValueTreatment="asIs"/>
      <MiningField name="Visibility" usageType="active" invalidValueTreatment="asIs"/>
     </MiningSchema>
     <Node id="1">
      <True/>
      <Node id="2">
       <SimplePredicate field="pressure_height" operator="lessOrEqual" value="5805"/>
       <Node id="4">
        <SimpleSetPredicate field="Day_of_month" booleanOperator="isIn">
         <Array n="19" type="string">&quot;1&quot;   &quot;2&quot;   &quot;5&quot;   &quot;6&quot;   &quot;8&quot;   &quot;9&quot;   &quot;10&quot;   &quot;11&quot;   &quot;12&quot;   &quot;13&quot;   &quot;14&quot;   &quot;15&quot;   &quot;16&quot;   &quot;17&quot;   &quot;20&quot;   &quot;23&quot;   &quot;24&quot;   &quot;27&quot;   &quot;28&quot;</Array>
        </SimpleSetPredicate>
        <Node id="8">
         <SimplePredicate field="Temperature_at_Sandburg" operator="lessOrEqual" value="44"/>
         <Node id="16">
          <SimpleSetPredicate field="Day_of_month" booleanOperator="isIn">
           <Array n="24" type="string">&quot;1&quot;   &quot;2&quot;   &quot;3&quot;   &quot;4&quot;   &quot;6&quot;   &quot;7&quot;   &quot;11&quot;   &quot;14&quot;   &quot;15&quot;   &quot;16&quot;   &quot;17&quot;   &quot;18&quot;   &quot;19&quot;   &quot;21&quot;   &quot;22&quot;   &quot;23&quot;   &quot;24&quot;   &quot;25&quot;   &quot;26&quot;   &quot;27&quot;   &quot;28&quot;   &quot;29&quot;   &quot;30&quot;   &quot;31&quot;</Array>
          </SimpleSetPredicate>
          <Node id="30" score="3">
           <SimplePredicate field="Pressure_gradient" operator="lessOrEqual" value="55"/>
          </Node>
          <Node id="31" score="2.2">
           <SimplePredicate field="Pressure_gradient" operator="greaterThan" value="55"/>
          </Node>
         </Node>
         <Node id="17">
          <SimpleSetPredicate field="Day_of_month" booleanOperator="isIn">
           <Array n="7" type="string">&quot;5&quot;   &quot;8&quot;   &quot;9&quot;   &quot;10&quot;   &quot;12&quot;   &quot;13&quot;   &quot;20&quot;</Array>
          </SimpleSetPredicate>
          <Node id="32">
           <SimplePredicate field="pressure_height" operator="lessOrEqual" value="5625"/>
           <Node id="48" score="3.8">
